{"learner":{"attributes":{"scikit_learn":"{\"_estimator_type\": \"classifier\"}"},"feature_names":["statistics.num_zeros","statistics.times.histogram_and_quantiles","statistics.unique_count","statistics.sample_size","statistics.data_type_representation.int","statistics.min","statistics.times.num_zeros","statistics.times.num_negatives","statistics.times.kurtosis","statistics.quantiles.0","statistics.null_count","statistics.variance","statistics.quantiles.1","statistics.mean","statistics.times.skewness","statistics.skewness","statistics.quantiles.2","statistics.stddev","statistics.unique_ratio","statistics.num_negatives","statistics.times.max","statistics.median","statistics.times.datetime","statistics.histogram","statistics.sum","statistics.median_abs_deviation","statistics.data_type_representation.datetime","statistics.times.variance","data_type","statistics.data_type_representation.float","statistics.unalikeability","statistics.gini_impurity","statistics.max","statistics.times.min","statistics.kurtosis","statistics.times.sum","statistics.num_zeros_01","statistics.times.histogram_and_quantiles_01","statistics.unique_count_01","statistics.sample_size_01","statistics.data_type_representation.int_01","statistics.min_01","statistics.times.num_zeros_01","statistics.times.num_negatives_01","statistics.times.kurtosis_01","statistics.quantiles.0_01","statistics.null_count_01","statistics.variance_01","statistics.quantiles.1_01","statistics.mean_01","statistics.times.skewness_01","statistics.skewness_01","statistics.quantiles.2_01","statistics.stddev_01","statistics.unique_ratio_01","statistics.num_negatives_01","statistics.times.max_01","statistics.median_01","statistics.times.datetime_01","statistics.histogram_01","statistics.sum_01","statistics.median_abs_deviation_01","statistics.data_type_representation.datetime_01","statistics.times.variance_01","data_type_01","statistics.data_type_representation.float_01","statistics.unalikeability_01","statistics.gini_impurity_01","statistics.max_01","statistics.times.min_01","statistics.kurtosis_01","statistics.times.sum_01","statistics.precision.std","statistics.times.precision","statistics.precision.sample_size","statistics.precision.max","statistics.precision.confidence_level","statistics.precision.min","statistics.precision.var","statistics.precision.mean","statistics.precision.margin_of_error","statistics.precision.std_01","statistics.times.precision_01","statistics.precision.sample_size_01","statistics.precision.max_01","statistics.precision.confidence_level_01","statistics.precision.min_01","statistics.precision.var_01","statistics.precision.mean_01","statistics.precision.margin_of_error_01"],"feature_types":["float","float","int","int","float","float","float","float","float","float","int","float","float","float","float","float","float","float","float","float","float","float","float","float","float","float","float","float","float","float","float","float","float","float","float","float","float","float","int","int","float","float","float","float","float","float","int","float","float","float","float","float","float","float","int","float","float","float","float","float","float","float","float","float","int","float","float","float","float","float","float","float","float","float","float","float","float","float","float","float","float","float","float","float","float","float","float","float","float","float"],"gradient_booster":{"model":{"gbtree_model_param":{"num_parallel_tree":"1","num_trees":"100"},"iteration_indptr":[0,1,2,3,4,5,6,7,8,9,10,11,12,13,14,15,16,17,18,19,20,21,22,23,24,25,26,27,28,29,30,31,32,33,34,35,36,37,38,39,40,41,42,43,44,45,46,47,48,49,50,51,52,53,54,55,56,57,58,59,60,61,62,63,64,65,66,67,68,69,70,71,72,73,74,75,76,77,78,79,80,81,82,83,84,85,86,87,88,89,90,91,92,93,94,95,96,97,98,99,100],"tree_info":[0,0,0,0,0,0,0,0,0,0,0,0,0,0,0,0,0,0,0,0,0,0,0,0,0,0,0,0,0,0,0,0,0,0,0,0,0,0,0,0,0,0,0,0,0,0,0,0,0,0,0,0,0,0,0,0,0,0,0,0,0,0,0,0,0,0,0,0,0,0,0,0,0,0,0,0,0,0,0,0,0,0,0,0,0,0,0,0,0,0,0,0,0,0,0,0,0,0,0,0],"trees":[{"base_weights":[-2.041451E-1,8.019632E-1,-1.063416E0,-1.0471241E0,2.9919243E0,2.4339368E0,-1.2142438E0,1.4784883E-2,-3.7500134E-1,3.464728E0,-8.094005E-1,9.8334394E-2,9.1130316E-1,-1.2363312E0,9.8334394E-2,-9.1581976E-1,6.356438E-1,1.189522E0,2.2727795E0,-4.8973557E-2,-2.831902E-1,-1.2584074E0,-4.1263643E-1,-3.0810165E-1,-7.529956E-2,2.982373E0,8.3627194E-1,-9.7807005E-2,-3.8099897E-1,-2.4425596E-1,9.8334394E-2,3.056814E-1,1.0166734E0,4.3818542E-1,-2.1108866E-1],"categories":[],"categories_nodes":[],"categories_segments":[],"categories_sizes":[],"default_left":[0,0,0,0,1,0,0,0,0,0,0,0,0,0,0,0,0,0,0,0,0,0,0,0,0,0,1,0,0,0,0,0,0,0,0],"id":0,"left_children":[1,3,5,7,9,11,13,15,-1,17,19,-1,-1,21,-1,23,-1,-1,25,-1,-1,27,29,-1,-1,31,33,-1,-1,-1,-1,-1,-1,-1,-1],"loss_changes":[1.4658972E2,3.1989136E2,5.1143677E1,9.315384E0,6.763217E1,4.2300186E0,3.4107513E0,1.7429026E1,0E0,1.0233185E1,2.6332617E-1,0E0,0E0,1.0665131E0,0E0,1.9924307E-1,0E0,0E0,9.619492E0,0E0,0E0,4.9839783E-1,1.3860075E0,0E0,0E0,2.5852356E0,6.1415443E0,0E0,0E0,0E0,0E0,0E0,0E0,0E0,0E0],"parents":[2147483647,0,0,1,1,2,2,3,3,4,4,5,5,6,6,7,7,9,9,10,10,13,13,15,15,18,18,21,21,22,22,25,25,26,26],"right_children":[2,4,6,8,10,12,14,16,-1,18,20,-1,-1,22,-1,24,-1,-1,26,-1,-1,28,30,-1,-1,32,34,-1,-1,-1,-1,-1,-1,-1,-1],"split_conditions":[1E4,1.9E1,1E-4,5.6E-3,1.3029E0,5.1E-3,2.814E3,3E0,-3.7500134E-1,1E0,1.85E2,9.8334394E-2,9.1130316E-1,1E0,9.8334394E-2,5.463E3,6.356438E-1,1.189522E0,2.00001E0,-4.8973557E-2,-2.831902E-1,2.02E2,7E0,-3.0810165E-1,-7.529956E-2,9.3442E4,6.867E-1,-9.7807005E-2,-3.8099897E-1,-2.4425596E-1,9.8334394E-2,3.056814E-1,1.0166734E0,4.3818542E-1,-2.1108866E-1],"split_indices":[3,2,35,30,15,1,2,2,0,81,0,0,0,58,0,0,0,0,4,0,0,10,2,0,0,32,30,0,0,0,0,0,0,0,0],"split_type":[0,0,0,0,0,0,0,0,0,0,0,0,0,0,0,0,0,0,0,0,0,0,0,0,0,0,0,0,0,0,0,0,0,0,0],"sum_hessian":[1.6757559E2,7.722298E1,9.0352615E1,4.2153034E1,3.5069942E1,3.1096501E0,8.7242966E1,6.9103336E0,3.5242702E1,3.126926E1,3.8006835E0,1.03655E0,2.0731E0,8.620641E1,1.03655E0,5.18275E0,1.7275834E0,2.0385485E1,1.0883776E1,1.03655E0,2.7641335E0,8.3442276E1,2.7641335E0,3.9734418E0,1.2093084E0,6.564817E0,4.3189583E0,1.3820667E0,8.206021E1,1.7275834E0,1.03655E0,1.7275834E0,4.8372335E0,3.1096501E0,1.2093084E0],"tree_param":{"num_deleted":"0","num_feature":"90","num_nodes":"35","size_leaf_vector":"1"}},{"base_weights":[-2.2349018E-1,4.55051E-1,-9.4033605E-1,-1.0260985E0,1.4533023E0,1.5352176E0,-1.1419443E0,8.119223E-2,-3.4856236E-1,1.6407294E0,-2.8338385E-1,-1.7503966E-2,6.0403126E-1,-3.5424036E-1,-1.7107214E-1,-2.4771628E-1,3.703192E-1,7.0060116E-1,1.7595688E0,-2.4527217E-1,2.523658E-1,1.2352517E0,-1.340718E-1,1.2975682E0,6.1053145E-1,1.3290496E-1,4.8916078E-1,5.06823E-1,-2.8614137E-1],"categories":[],"categories_nodes":[],"categories_segments":[],"categories_sizes":[],"default_left":[0,0,0,0,1,0,0,0,0,0,0,0,0,0,0,0,0,0,0,0,0,0,0,1,0,0,0,0,0],"id":1,"left_children":[1,3,5,7,9,11,13,15,-1,17,-1,-1,-1,-1,19,-1,-1,21,23,-1,-1,25,-1,27,-1,-1,-1,-1,-1],"loss_changes":[7.639743E1,1.2112111E2,3.9821167E1,5.0800095E0,2.345884E1,4.8198824E0,2.4804077E0,5.7850747E0,0E0,3.8595428E0,0E0,0E0,0E0,0E0,3.2438266E0,0E0,0E0,4.709576E0,2.4261093E0,0E0,0E0,8.0849075E-1,0E0,1.7163511E1,0E0,0E0,0E0,0E0,0E0],"parents":[2147483647,0,0,1,1,2,2,3,3,4,4,5,5,6,6,7,7,9,9,14,14,17,17,18,18,21,21,23,23],"right_children":[2,4,6,8,10,12,14,16,-1,18,-1,-1,-1,-1,20,-1,-1,22,24,-1,-1,26,-1,28,-1,-1,-1,-1,-1],"split_conditions":[1.89E2,1.2E1,1E-4,3.2E-3,6.3E1,2.15887E1,1E0,5.463E3,-3.4856236E-1,9.3479E4,-2.8338385E-1,-1.7503966E-2,6.0403126E-1,-3.5424036E-1,6.2E-3,-2.4771628E-1,3.703192E-1,1.5909542E4,4.07E2,-2.4527217E-1,2.523658E-1,1.6E1,-1.340718E-1,1.551E-1,6.1053145E-1,1.3290496E-1,4.8916078E-1,5.06823E-1,-2.8614137E-1],"split_indices":[10,2,35,30,0,9,58,0,0,5,0,0,0,0,18,0,0,9,2,0,0,5,0,30,0,0,0,0,0],"split_type":[0,0,0,0,0,0,0,0,0,0,0,0,0,0,0,0,0,0,0,0,0,0,0,0,0,0,0,0,0],"sum_hessian":[1.5518434E2,7.990976E1,7.527458E1,3.2161873E1,4.774789E1,5.170536E0,7.010404E1,3.5568442E0,2.860503E1,4.457923E1,3.1686575E0,1.3961525E0,3.7743838E0,6.719836E1,2.9056835E0,2.1500003E0,1.4068438E0,5.776579E0,3.8802654E1,1.8906009E0,1.0150825E0,3.8884115E0,1.8881675E0,1.6629185E1,2.217347E1,2.0002441E0,1.8881675E0,1.4376607E1,2.2525768E0],"tree_param":{"num_deleted":"0","num_feature":"90","num_nodes":"29","size_leaf_vector":"1"}},{"base_weights":[-2.0700902E-1,2.2874312E-1,-1.0555042E0,-8.863137E-1,8.61129E-1,-3.3371606E-1,8.8806316E-2,-8.46113E-2,-3.2953107E-1,1.1926811E0,-6.888212E-1,-8.0939174E-1,3.359911E-1,1.2379798E0,-1.8383466E-2,-3.0900353E-1,3.273163E-1,-2.716194E-1,-8.104855E-2,1.2806364E0,5.7634586E-1,3.9852676E-1,-3.6596905E-2,3.8002506E-1,-1.1686906E-1],"categories":[],"categories_nodes":[],"categories_segments":[],"categories_sizes":[],"default_left":[0,0,0,0,1,0,0,0,0,1,0,0,0,0,0,0,0,0,0,0,0,0,0,0,0],"id":2,"left_children":[1,3,5,7,9,-1,-1,11,-1,13,15,17,-1,19,-1,-1,-1,-1,-1,21,23,-1,-1,-1,-1],"loss_changes":[4.938938E1,6.3272095E1,3.8104439E0,5.4464703E0,3.015092E1,0E0,0E0,7.8025923E0,0E0,2.7673035E0,7.6163E0,4.0750742E-2,0E0,5.5389404E-1,0E0,0E0,0E0,0E0,0E0,2.9896317E0,3.5550194E0,0E0,0E0,0E0,0E0],"parents":[2147483647,0,0,1,1,2,2,3,3,4,4,7,7,9,9,10,10,11,11,13,13,19,19,20,20],"right_children":[2,4,6,8,10,-1,-1,12,-1,14,16,18,-1,20,-1,-1,-1,-1,-1,22,24,-1,-1,-1,-1],"split_conditions":[3.897E3,1.9E1,1E0,5.6E-3,1.6121E0,-3.3371606E-1,8.8806316E-2,3E0,-3.2953107E-1,5.9426627E9,2.302668E2,2E4,3.359911E-1,4.01E2,-1.8383466E-2,-3.0900353E-1,3.273163E-1,-2.716194E-1,-8.104855E-2,2.00001E0,1E0,3.9852676E-1,-3.6596905E-2,3.8002506E-1,-1.1686906E-1],"split_indices":[10,2,58,30,34,0,0,2,0,11,9,0,0,10,0,0,0,0,0,58,0,0,0,0,0],"split_type":[0,0,0,0,0,0,0,0,0,0,0,0,0,0,0,0,0,0,0,0,0,0,0,0,0],"sum_hessian":[1.31928E2,8.764668E1,4.428131E1,3.1573338E1,5.607335E1,4.2662674E1,1.6186371E0,6.898792E0,2.4674545E1,4.6382175E1,9.691174E0,4.512034E0,2.3867576E0,4.477735E1,1.6048216E0,8.485802E0,1.205372E0,3.2536814E0,1.2583528E0,4.1186428E1,3.5909235E0,3.9880642E1,1.3057885E0,1.9124796E0,1.6784439E0],"tree_param":{"num_deleted":"0","num_feature":"90","num_nodes":"25","size_leaf_vector":"1"}},{"base_weights":[-1.9423002E-1,1.77356E-1,-9.982741E-1,-8.1903195E-1,6.804612E-1,-3.2000753E-1,7.020161E-2,-7.934007E-2,-3.143775E-1,9.2470384E-1,-6.1210567E-1,-2.7298483E-1,7.591052E-1,1.0212042E0,4.094596E-1,-2.900683E-1,2.8023526E-1,-6.961064E-2,3.7056932E-1,4.5517078E-1,8.6602324E-1,-6.896454E-1,2.7911648E-1,3.1428617E-1,-1.5789832E-1,-2.8481728E-1,-3.2712992E-2],"categories":[],"categories_nodes":[],"categories_segments":[],"categories_sizes":[],"default_left":[0,0,0,0,1,0,0,0,0,0,0,0,0,0,0,0,0,0,0,0,0,0,0,0,0,0,0],"id":3,"left_children":[1,3,5,7,9,-1,-1,11,-1,13,15,-1,17,19,21,-1,-1,-1,-1,-1,23,25,-1,-1,-1,-1,-1],"loss_changes":[3.3558025E1,3.928805E1,3.2396584E0,4.3826923E0,1.694636E1,0E0,0E0,5.785174E0,0E0,1.7714806E0,5.756956E0,0E0,2.2618325E0,1.4895973E0,5.5748596E0,0E0,0E0,0E0,0E0,0E0,8.155144E0,4.0090978E-1,0E0,0E0,0E0,0E0,0E0],"parents":[2147483647,0,0,1,1,2,2,3,3,4,4,7,7,9,9,10,10,12,12,13,13,14,14,20,20,21,21],"right_children":[2,4,6,8,10,-1,-1,12,-1,14,16,-1,18,20,22,-1,-1,-1,-1,-1,24,26,-1,-1,-1,-1,-1],"split_conditions":[3.897E3,1.9E1,1E0,5.6E-3,1.6121E0,-3.2000753E-1,7.020161E-2,2E4,-3.143775E-1,1E0,2.302668E2,-2.7298483E-1,3E0,1.0763E0,1.1407E4,-2.900683E-1,2.8023526E-1,-6.961064E-2,3.7056932E-1,4.5517078E-1,1E0,1E-4,2.7911648E-1,3.1428617E-1,-1.5789832E-1,-2.8481728E-1,-3.2712992E-2],"split_indices":[10,2,58,30,34,0,0,0,0,18,9,0,2,15,5,0,0,0,0,0,10,6,0,0,0,0,0],"split_type":[0,0,0,0,0,0,0,0,0,0,0,0,0,0,0,0,0,0,0,0,0,0,0,0,0,0,0],"sum_hessian":[1.10727425E2,7.626244E1,3.446499E1,2.5376644E1,5.0885796E1,3.2779408E1,1.6855787E0,6.3151593E0,1.9061485E1,4.3037968E1,7.8478284E0,3.1295629E0,3.1855965E0,3.5421818E1,7.616149E0,6.6879244E0,1.159904E0,1.2000787E0,1.9855177E0,6.3492866E0,2.9072533E1,2.344861E0,5.2712884E0,2.5937256E1,3.1352756E0,1.1812284E0,1.1636326E0],"tree_param":{"num_deleted":"0","num_feature":"90","num_nodes":"27","size_leaf_vector":"1"}},{"base_weights":[-1.808067E-1,1.2016728E-1,-3.0830804E-1,-8.644865E-1,5.114968E-1,-3.52448E-2,-3.0685556E-1,-2.7047136E-1,6.731843E-1,-2.0475905E-1,1.7967026E-1,8.897761E-1,2.4906275E-1,-5.2842658E-2,1.0578696E0,3.5555646E-1,-3.0142855E-2,1.5473822E-1,-1.7835939E-1,2.0930596E-1,3.7621152E-1,-2.863841E-1,2.0963596E-1],"categories":[],"categories_nodes":[],"categories_segments":[],"categories_sizes":[],"default_left":[0,0,0,0,0,0,0,0,1,0,0,0,0,0,0,0,0,0,0,0,0,0,0],"id":4,"left_children":[1,3,-1,5,7,9,-1,-1,11,-1,-1,13,15,17,19,-1,21,-1,-1,-1,-1,-1,-1],"loss_changes":[2.3787148E1,2.7180227E1,0E0,2.6044044E0,1.2095698E1,2.1573105E0,0E0,0E0,3.9759083E0,0E0,0E0,4.786932E0,4.4360495E0,1.991909E0,9.188633E-1,0E0,1.0062886E1,0E0,0E0,0E0,0E0,0E0,0E0],"parents":[2147483647,0,0,1,1,3,3,4,4,5,5,8,8,11,11,12,12,13,13,14,14,16,16],"right_children":[2,4,-1,6,8,10,-1,-1,12,-1,-1,14,16,18,20,-1,22,-1,-1,-1,-1,-1,-1],"split_conditions":[1.5E4,1.2E1,-3.0830804E-1,3.2E-3,1.935019E2,2E4,-3.0685556E-1,-2.7047136E-1,1.278E-1,-2.0475905E-1,1.7967026E-1,1.1407E4,1E-4,9.94E-1,5E3,3.5555646E-1,8.48E-2,1.5473822E-1,-1.7835939E-1,2.0930596E-1,3.7621152E-1,-2.863841E-1,2.0963596E-1],"split_indices":[3,2,0,30,11,0,0,0,30,0,0,5,20,18,3,0,18,0,0,0,0,0,0],"split_type":[0,0,0,0,0,0,0,0,0,0,0,0,0,0,0,0,0,0,0,0,0,0,0],"sum_hessian":[9.183837E1,6.839106E1,2.3447306E1,1.9106543E1,4.928452E1,3.259822E0,1.5846721E1,4.590431E0,4.4694088E1,1.5754398E0,1.684382E0,2.8858568E1,1.583552E1,4.4711747E0,2.4387394E1,2.8925314E0,1.2942988E1,2.2046504E0,2.2665243E0,1.0205592E1,1.4181802E1,5.569638E0,7.3733506E0],"tree_param":{"num_deleted":"0","num_feature":"90","num_nodes":"23","size_leaf_vector":"1"}},{"base_weights":[-1.6603655E-1,9.747307E-2,-2.99017E-1,-8.0884737E-1,4.229146E-1,-3.9103564E-2,-2.9525515E-1,-2.5345236E-1,5.5577546E-1,-1.8770397E-1,1.4387794E-1,7.038453E-1,9.950737E-2,-2.7630723E-1,8.011065E-1,2.9982248E-1,-2.907512E-1,5.7314996E-2,-1.615949E-1,1.2007547E-1,3.1695545E-1,-2.8800303E-1,2.427736E-1],"categories":[],"categories_nodes":[],"categories_segments":[],"categories_sizes":[],"default_left":[0,0,0,0,0,0,0,0,1,0,0,0,0,0,0,0,0,0,0,0,0,0,0],"id":5,"left_children":[1,3,-1,5,7,9,-1,-1,11,-1,-1,13,15,17,19,-1,21,-1,-1,-1,-1,-1,-1],"loss_changes":[1.7152458E1,1.805782E1,0E0,2.1496077E0,8.023908E0,1.5320581E0,0E0,0E0,2.7133503E0,0E0,0E0,3.1709013E0,4.2446365E0,5.365232E-1,2.4851646E0,0E0,7.1285553E0,0E0,0E0,0E0,0E0,0E0,0E0],"parents":[2147483647,0,0,1,1,3,3,4,4,5,5,8,8,11,11,12,12,13,13,14,14,16,16],"right_children":[2,4,-1,6,8,10,-1,-1,12,-1,-1,14,16,18,20,-1,22,-1,-1,-1,-1,-1,-1],"split_conditions":[1.5E4,1.2E1,-2.99017E-1,3.2E-3,1.935019E2,2E4,-2.9525515E-1,-2.5345236E-1,3.615E-1,-1.8770397E-1,1.4387794E-1,9.3442E4,1E-4,5.415862E6,4.07E2,2.9982248E-1,9.916E-1,5.7314996E-2,-1.615949E-1,1.2007547E-1,3.1695545E-1,-2.8800303E-1,2.427736E-1],"split_indices":[3,2,0,30,11,0,0,0,30,0,0,32,20,11,2,0,30,0,0,0,0,0,0],"split_type":[0,0,0,0,0,0,0,0,0,0,0,0,0,0,0,0,0,0,0,0,0,0,0],"sum_hessian":[7.6915825E1,5.9062683E1,1.7853144E1,1.521239E1,4.3850292E1,3.0491877E0,1.2163202E1,3.651254E0,4.0199036E1,1.3341684E0,1.7150192E0,2.9940136E1,1.0258901E1,2.5366008E0,2.7403536E1,2.6310503E0,7.62785E0,1.0096626E0,1.5269383E0,1.1664228E1,1.5739307E1,4.8215737E0,2.8062766E0],"tree_param":{"num_deleted":"0","num_feature":"90","num_nodes":"23","size_leaf_vector":"1"}},{"base_weights":[-1.5647553E-1,7.532194E-2,-2.9032457E-1,-8.479644E-1,3.2410252E-1,-4.958905E-2,-2.8486222E-1,-2.4221654E-1,4.4039562E-1,3.2742414E-1,2.641345E-1,-4.3666744E-1,6.62334E-1,2.4037479E-1,-2.6162508E-1,-2.4055365E-2,2.7085975E-1],"categories":[],"categories_nodes":[],"categories_segments":[],"categories_sizes":[],"default_left":[0,0,0,0,0,0,0,0,0,0,0,0,0,0,0,0,0],"id":6,"left_children":[1,3,-1,5,7,-1,-1,-1,9,-1,11,13,15,-1,-1,-1,-1],"loss_changes":[1.2355789E1,1.2156876E1,0E0,6.236038E-1,5.812776E0,0E0,0E0,0E0,4.1014247E0,0E0,9.058216E0,7.1605453E0,3.7221022E0,0E0,0E0,0E0,0E0],"parents":[2147483647,0,0,1,1,3,3,4,4,8,8,10,10,11,11,12,12],"right_children":[2,4,-1,6,8,-1,-1,-1,10,-1,12,14,16,-1,-1,-1,-1],"split_conditions":[1.5E4,5E0,-2.9032457E-1,1.2E-3,1.935019E2,-4.958905E-2,-2.8486222E-1,-2.4221654E-1,1.278E-1,3.2742414E-1,4.07E2,1.0763E0,9.3479E4,2.4037479E-1,-2.6162508E-1,-2.4055365E-2,2.7085975E-1],"split_indices":[3,2,0,30,11,0,0,0,30,0,2,15,5,0,0,0,0],"split_type":[0,0,0,0,0,0,0,0,0,0,0,0,0,0,0,0,0],"sum_hessian":[6.431683E1,5.0729515E1,1.3587316E1,1.0256526E1,4.047299E1,1.6687326E0,8.587793E0,3.2182124E0,3.7254776E1,6.8313293E0,3.0423449E1,1.0988279E1,1.943517E1,2.6406229E0,8.347656E0,4.9184895E0,1.451668E1],"tree_param":{"num_deleted":"0","num_feature":"90","num_nodes":"17","size_leaf_vector":"1"}},{"base_weights":[-1.4195113E-1,6.1231706E-2,-2.8156424E-1,-2.7244788E-1,2.497683E-1,-5.19773E-1,3.8537127E-1,8.789798E-2,-2.4648081E-1,2.9466328E-1,2.4217358E-1,-2.918825E-1,5.3651375E-1,2.026293E-1,-1.9678228E-1,-1.4074828E-1,1.986217E-1],"categories":[],"categories_nodes":[],"categories_segments":[],"categories_sizes":[],"default_left":[0,0,0,0,0,0,0,0,0,0,0,0,0,0,0,0,0],"id":7,"left_children":[1,3,-1,-1,5,7,9,-1,-1,-1,11,13,15,-1,-1,-1,-1],"loss_changes":[9.05481E0,8.493421E0,0E0,0E0,4.2335434E0,1.7656379E0,2.6196222E0,0E0,0E0,0E0,4.60392E0,4.2111893E0,2.6582189E0,0E0,0E0,0E0,0E0],"parents":[2147483647,0,0,1,1,4,4,5,5,6,6,10,10,11,11,12,12],"right_children":[2,4,-1,-1,6,8,10,-1,-1,-1,12,14,16,-1,-1,-1,-1],"split_conditions":[1.5E4,1.935019E2,-2.8156424E-1,-2.7244788E-1,7E0,2.4E-3,1.278E-1,8.789798E-2,-2.4648081E-1,2.9466328E-1,4.07E2,1.0763E0,1.1713447E4,2.026293E-1,-1.9678228E-1,-1.4074828E-1,1.986217E-1],"split_indices":[3,11,0,0,2,30,30,0,0,0,2,15,9,0,0,0,0],"split_type":[0,0,0,0,0,0,0,0,0,0,0,0,0,0,0,0,0],"sum_hessian":[5.4589005E1,4.4230534E1,1.0358472E1,6.5802464E0,3.7650284E1,5.2160964E0,3.243419E1,1.4204332E0,3.795663E0,5.1422906E0,2.7291899E1,9.700141E0,1.7591759E1,2.4185917E0,7.281549E0,1.6488135E0,1.5942945E1],"tree_param":{"num_deleted":"0","num_feature":"90","num_nodes":"17","size_leaf_vector":"1"}},{"base_weights":[-1.3066365E-1,1.6278945E-1,-6.3063884E-1,-6.8888766E-1,3.827692E-1,6.0632384E-1,-8.675193E-1,3.8858432E-2,-2.5782862E-1,-1.7438973E-1,5.6298316E-1,4.9968157E-2,2.1949852E-1,-2.9342383E-1,1.7489653E-2,1.6218846E-1,-2.1729697E-1,2.323E-1,9.031801E-1,-3.0146474E-1,2.5991997E-1,8.028289E-1,-5.5843997E-1,2.9842642E-1,4.3497685E-2,3.9976913E-2,-1.9520248E-1,2.975754E-1,-2.0553123E-2,4.635609E-2,-3.3094934E-1],"categories":[],"categories_nodes":[],"categories_segments":[],"categories_sizes":[],"default_left":[0,0,0,0,0,0,0,0,0,0,0,0,0,0,0,0,0,0,0,0,0,0,0,0,0,0,0,0,0,0,0],"id":8,"left_children":[1,3,5,7,9,11,13,-1,-1,15,17,-1,-1,-1,-1,19,-1,21,23,25,-1,27,29,-1,-1,-1,-1,-1,-1,-1,-1],"loss_changes":[7.151932E0,6.0848494E0,5.792952E0,1.0513611E0,2.6420786E0,6.981778E-2,1.6433287E0,0E0,0E0,1.4049169E0,1.9704075E0,0E0,0E0,0E0,0E0,1.9367748E0,0E0,5.489257E0,4.9497557E-1,6.6909146E-1,0E0,1.2049532E0,2.2182646E0,0E0,0E0,0E0,0E0,0E0,0E0,0E0,0E0],"parents":[2147483647,0,0,1,1,2,2,3,3,4,4,5,5,6,6,9,9,10,10,15,15,17,17,18,18,19,19,21,21,22,22],"right_children":[2,4,6,8,10,12,14,-1,-1,16,18,-1,-1,-1,-1,20,-1,22,24,26,-1,28,30,-1,-1,-1,-1,-1,-1,-1,-1],"split_conditions":[1.89E2,5E0,1E-4,1.2E-3,9.3479E4,1.4111499E4,1E0,3.8858432E-2,-2.5782862E-1,1.5909542E4,4.07E2,4.9968157E-2,2.1949852E-1,-2.9342383E-1,1.7489653E-2,1.6E1,-2.1729697E-1,1.486E-1,4.278E3,4E-4,2.5991997E-1,3.31E2,1E3,2.9842642E-1,4.3497685E-2,3.9976913E-2,-1.9520248E-1,2.975754E-1,-2.0553123E-2,4.635609E-2,-3.3094934E-1],"split_indices":[10,2,35,30,5,11,58,0,0,9,2,0,0,0,0,5,0,30,2,6,0,2,3,0,0,0,0,0,0,0,0],"split_type":[0,0,0,0,0,0,0,0,0,0,0,0,0,0,0,0,0,0,0,0,0,0,0,0,0,0,0,0,0,0,0],"sum_hessian":[4.7045975E1,3.007078E1,1.6975197E1,5.7350955E0,2.4335684E1,2.4776375E0,1.4497559E1,1.0304617E0,4.704634E0,5.95554E0,1.8380144E1,1.0660746E0,1.4115628E0,1.2900542E1,1.5970166E0,4.131808E0,1.8237324E0,1.0173749E1,8.206394E0,2.8362987E0,1.2955091E0,5.9008927E0,4.2728567E0,7.043641E0,1.1627533E0,1.5389338E0,1.297365E0,4.734974E0,1.1659186E0,2.1609023E0,2.1119545E0],"tree_param":{"num_deleted":"0","num_feature":"90","num_nodes":"31","size_leaf_vector":"1"}},{"base_weights":[-1.1402619E-1,4.0915985E-2,-2.6121166E-1,-2.50289E-1,1.8904275E-1,-3.4508866E-1,3.0600542E-1,9.901072E-2,-2.3343012E-1,4.2623243E-1,-9.6598744E-2,6.29723E-1,3.119236E-2,-3.8537627E-1,1.8528324E-1,2.7299178E-1,1.1796728E-1,2.4946648E-1,-1.1232422E-1,8.1854306E-2,-4.2071265E-1],"categories":[],"categories_nodes":[],"categories_segments":[],"categories_sizes":[],"default_left":[0,0,0,0,0,0,0,0,0,0,1,0,0,0,0,0,0,0,0,0,0],"id":9,"left_children":[1,3,-1,-1,5,7,9,-1,-1,11,13,15,17,19,-1,-1,-1,-1,-1,-1,-1],"loss_changes":[4.816723E0,4.6697826E0,0E0,0E0,2.016123E0,2.00019E0,1.2811725E0,0E0,0E0,1.5809908E0,1.621138E0,5.097561E-1,2.8505325E0,3.991506E0,0E0,0E0,0E0,0E0,0E0,0E0,0E0],"parents":[2147483647,0,0,1,1,4,4,5,5,6,6,9,9,10,10,11,11,12,12,13,13],"right_children":[2,4,-1,-1,6,8,10,-1,-1,12,14,16,18,20,-1,-1,-1,-1,-1,-1,-1],"split_conditions":[1.5E4,1.935019E2,-2.6121166E-1,-2.50289E-1,1.9E1,5.6E-3,9.89E-1,9.901072E-2,-2.3343012E-1,1E0,8.82E-1,2.71E2,1.0763E0,4.4E-1,1.8528324E-1,2.7299178E-1,1.1796728E-1,2.4946648E-1,-1.1232422E-1,8.1854306E-2,-4.2071265E-1],"split_indices":[3,11,0,0,2,30,18,0,0,10,26,2,15,26,0,0,0,0,0,0,0],"split_type":[0,0,0,0,0,0,0,0,0,0,0,0,0,0,0,0,0,0,0,0,0],"sum_hessian":[3.9779896E1,3.380393E1,5.9759674E0,4.222545E0,2.9581383E1,4.963632E0,2.461775E1,2.0325003E0,2.9311318E0,1.8911612E1,5.7061386E0,1.2089877E1,6.8217344E0,4.3910956E0,1.3150432E0,4.2298484E0,7.8600283E0,1.9411702E0,4.880564E0,3.1099691E0,1.2811265E0],"tree_param":{"num_deleted":"0","num_feature":"90","num_nodes":"21","size_leaf_vector":"1"}},{"base_weights":[-1.0414867E-1,2.9321609E-2,-2.4989398E-1,-2.3652957E-1,1.537965E-1,-4.4336897E-1,2.3575908E-1,8.376525E-3,-1.9241832E-1,2.461466E-1,1.2070978E-1,-3.349949E-1,3.5886925E-1,3.396821E-2,-3.794001E-1,-5.2916724E-2,1.6337048E-1],"categories":[],"categories_nodes":[],"categories_segments":[],"categories_sizes":[],"default_left":[0,0,0,0,0,0,0,0,0,0,0,0,0,0,0,0,0],"id":10,"left_children":[1,3,-1,-1,5,7,9,-1,-1,-1,11,13,15,-1,-1,-1,-1],"loss_changes":[3.5454657E0,3.3336787E0,0E0,0E0,1.4861017E0,3.6824173E-1,1.6146058E0,0E0,0E0,0E0,2.557556E0,3.5707521E0,1.6100854E0,0E0,0E0,0E0,0E0],"parents":[2147483647,0,0,1,1,4,4,5,5,6,6,10,10,11,11,12,12],"right_children":[2,4,-1,-1,6,8,10,-1,-1,-1,12,14,16,-1,-1,-1,-1],"split_conditions":[1.5E4,1.935019E2,-2.4989398E-1,-2.3652957E-1,5E0,2.4E-3,1.278E-1,8.376525E-3,-1.9241832E-1,2.461466E-1,3.71E2,2.54E2,1.1407E4,3.396821E-2,-3.794001E-1,-5.2916724E-2,1.6337048E-1],"split_indices":[3,11,0,0,2,30,30,0,0,0,2,2,5,0,0,0,0],"split_type":[0,0,0,0,0,0,0,0,0,0,0,0,0,0,0,0,0],"sum_hessian":[3.5195915E1,3.055937E1,4.6365438E0,3.3324375E0,2.7226933E1,2.7538009E0,2.4473133E1,1.0688913E0,1.6849096E0,3.0154917E0,2.145764E1,7.225485E0,1.4232156E1,5.4676003E0,1.7578844E0,3.678729E0,1.0553427E1],"tree_param":{"num_deleted":"0","num_feature":"90","num_nodes":"17","size_leaf_vector":"1"}},{"base_weights":[-1.0369041E-1,9.8420836E-2,-4.9142388E-1,-1.6705933E-1,4.4391632E-1,1.6426434E-1,-7.663251E-1,1.6593084E-1,-5.071465E-1,2.622687E-1,-5.04865E-2,-2.704005E-1,9.177957E-3,-1.4409308E-1,5.222534E-1,-1.5207231E-1,-3.085244E-1,-3.2564726E-1,1.2253352E-1,2.1246192E-1,-2.6448432E-2,2.4447678E-1,-6.1398256E-1,5.2656397E-2,-2.1915781E-1,-2.4259202E-1,-2.308753E-3],"categories":[],"categories_nodes":[],"categories_segments":[],"categories_sizes":[],"default_left":[0,0,0,0,0,0,0,0,0,0,1,0,0,0,0,0,0,0,0,0,0,0,1,0,0,0,0],"id":11,"left_children":[1,3,5,7,9,-1,11,13,15,-1,17,-1,-1,-1,19,21,-1,23,-1,-1,-1,-1,25,-1,-1,-1,-1],"loss_changes":[2.6276917E0,2.1350842E0,3.6884415E0,1.6053221E0,2.1794233E0,0E0,1.0461526E0,1.9872044E0,1.11923E0,0E0,8.421903E-1,0E0,0E0,0E0,6.685288E-1,2.85562E0,0E0,9.5353055E-1,0E0,0E0,0E0,0E0,4.8222685E-1,0E0,0E0,0E0,0E0],"parents":[2147483647,0,0,1,1,2,2,3,3,4,4,6,6,7,7,8,8,10,10,14,14,15,15,17,17,22,22],"right_children":[2,4,6,8,10,-1,12,14,16,-1,18,-1,-1,-1,20,22,-1,24,-1,-1,-1,-1,26,-1,-1,-1,-1],"split_conditions":[1.89E2,4.07E2,1E-4,1.486E-1,9.89E-1,1.6426434E-1,1E0,3E0,2.54E2,2.622687E-1,1.4001E4,-2.704005E-1,9.177957E-3,-1.4409308E-1,3.31E2,1E0,-3.085244E-1,9.92E2,1.2253352E-1,2.1246192E-1,-2.6448432E-2,2.4447678E-1,-1.7029E0,5.2656397E-2,-2.1915781E-1,-2.4259202E-1,-2.308753E-3],"split_indices":[10,2,20,30,18,0,58,2,2,0,5,0,0,0,2,66,0,2,0,0,0,0,34,0,0,0,0],"split_type":[0,0,0,0,0,0,0,0,0,0,0,0,0,0,0,0,0,0,0,0,0,0,0,0,0,0,0],"sum_hessian":[3.1914131E1,2.1469193E1,1.044494E1,1.2432485E1,9.036708E0,1.9778781E0,8.467061E0,6.5405335E0,5.891951E0,4.4207635E0,4.615945E0,7.128382E0,1.3386792E0,2.2009099E0,4.3396235E0,4.2730184E0,1.6189328E0,3.0673077E0,1.548637E0,3.2035189E0,1.1361048E0,1.134252E0,3.1387663E0,1.623806E0,1.4435016E0,2.1232924E0,1.0154737E0],"tree_param":{"num_deleted":"0","num_feature":"90","num_nodes":"27","size_leaf_vector":"1"}},{"base_weights":[-9.1204725E-2,-2.3000123E-1,1.6499085E-2,1.1623186E-1,-2.1144879E-1,2.6149976E-1,-1.9764586E-1,4.3352073E-1,-1.1916376E-1,1.5659322E-1,-4.331054E-1,1.05275095E-1,8.1848574E-1,-3.6063004E-1,1.6097641E-1,-6.523847E-1,1.1893708E-1,1.3956472E-1,-2.575182E-1,2.7546296E-1,6.0238317E-2,5.838022E-2,-3.553459E-1,-1.3612185E-2,-2.4693404E-1],"categories":[],"categories_nodes":[],"categories_segments":[],"categories_sizes":[],"default_left":[0,0,0,1,0,0,0,0,1,0,0,0,1,0,0,0,0,0,0,0,0,0,0,0,0],"id":12,"left_children":[1,-1,3,5,-1,7,9,11,13,-1,15,17,19,21,-1,23,-1,-1,-1,-1,-1,-1,-1,-1,-1],"loss_changes":[2.1329126E0,0E0,1.9606615E0,1.1369493E0,0E0,1.1453104E0,1.5985618E0,1.3946636E0,1.1408181E0,0E0,1.4682522E0,2.9914536E0,1.3876486E-1,2.5042183E0,0E0,5.468807E-1,0E0,0E0,0E0,0E0,0E0,0E0,0E0,0E0,0E0],"parents":[2147483647,0,0,2,2,3,3,5,5,6,6,7,7,8,8,10,10,11,11,12,12,13,13,15,15],"right_children":[2,-1,4,6,-1,8,10,12,14,-1,16,18,20,22,-1,24,-1,-1,-1,-1,-1,-1,-1,-1,-1],"split_conditions":[2.035773E2,-2.3000123E-1,9.861E3,1.486E-1,-2.1144879E-1,9.89E-1,1E-4,3.71E2,8.82E-1,1.5659322E-1,9.919E-1,2.95E2,5.659E-1,4.4E-1,1.6097641E-1,2.88E-1,1.1893708E-1,1.3956472E-1,-2.575182E-1,2.7546296E-1,6.0238317E-2,5.838022E-2,-3.553459E-1,-1.3612185E-2,-2.4693404E-1],"split_indices":[11,0,10,30,0,18,20,2,26,0,30,2,15,26,0,30,0,0,0,0,0,0,0,0,0],"split_type":[0,0,0,0,0,0,0,0,0,0,0,0,0,0,0,0,0,0,0,0,0,0,0,0,0],"sum_hessian":[2.8144403E1,3.0290911E0,2.5115313E1,2.280157E1,2.3137417E0,1.5701518E1,7.100054E0,1.07188425E1,4.9826756E0,1.4504058E0,5.6496477E0,6.4730096E0,4.2458324E0,3.970629E0,1.0120466E0,4.637414E0,1.012234E0,5.0893345E0,1.3836753E0,3.236752E0,1.0090804E0,2.828308E0,1.142321E0,1.2958614E0,3.3415525E0],"tree_param":{"num_deleted":"0","num_feature":"90","num_nodes":"25","size_leaf_vector":"1"}},{"base_weights":[-8.828307E-2,-5.4415065E-1,5.665151E-2,-9.373482E-2,-2.3250513E-1,1.4376743E-1,-1.8507572E-1,-6.794198E-2,2.8852174E-2,3.0697638E-2,5.502844E-1,1.6662684E-1,-4.65227E-1,2.3817475E-1,-8.186535E-3,3.6805272E-1,-3.414023E-1,-2.238099E-1,-1.5133641E-2,2.9805262E-2,2.2205271E-1,-2.0101015E-1,1.1267132E-1],"categories":[],"categories_nodes":[],"categories_segments":[],"categories_sizes":[],"default_left":[0,0,0,0,0,1,0,0,0,0,0,0,0,0,0,0,0,0,0,0,0,0,0],"id":13,"left_children":[1,3,5,7,-1,9,-1,-1,-1,11,13,15,17,-1,-1,19,21,-1,-1,-1,-1,-1,-1],"loss_changes":[1.7739561E0,5.989696E-1,1.3164837E0,1.0562971E-1,0E0,8.720062E-1,0E0,0E0,0E0,1.168856E0,6.0553396E-1,1.501268E0,3.9873195E-1,0E0,0E0,9.371083E-1,1.2731614E0,0E0,0E0,0E0,0E0,0E0,0E0],"parents":[2147483647,0,0,1,1,2,2,3,3,5,5,9,9,10,10,11,11,12,12,15,15,16,16],"right_children":[2,4,6,8,-1,10,-1,-1,-1,12,14,16,18,-1,-1,20,22,-1,-1,-1,-1,-1,-1],"split_conditions":[1.9E1,5.6E-3,1.5E4,5E-4,-2.3250513E-1,7.9E1,-1.8507572E-1,-6.794198E-2,2.8852174E-2,9.89E-1,6.765298E4,1.89E2,4.4962762E8,2.3817475E-1,-8.186535E-3,4.07E2,1E0,-2.238099E-1,-1.5133641E-2,2.9805262E-2,2.2205271E-1,-2.0101015E-1,1.1267132E-1],"split_indices":[2,30,3,18,0,5,0,0,0,18,25,10,11,0,0,2,58,0,0,0,0,0,0],"split_type":[0,0,0,0,0,0,0,0,0,0,0,0,0,0,0,0,0,0,0,0,0,0,0],"sum_hessian":[2.5382677E1,5.458721E0,1.9923956E1,2.3262556E0,3.1324654E0,1.833869E1,1.5852661E0,1.2558974E0,1.0703582E0,1.51893835E1,3.149305E0,1.2442889E1,2.7464943E0,1.9515364E0,1.1977687E0,9.1074505E0,3.3354387E0,1.1615272E0,1.5849673E0,6.0243692E0,3.0830817E0,2.3320093E0,1.0034294E0],"tree_param":{"num_deleted":"0","num_feature":"90","num_nodes":"23","size_leaf_vector":"1"}},{"base_weights":[-8.2408525E-2,-1.9788499E-1,1.5766103E-2,9.647314E-2,-1.8509832E-1,3.5436833E-1,-6.614909E-2,5.131542E-2,2.3251502E-1,8.774972E-2,-1.6775724E-1,3.4324163E-1,-1.3542847E-1,2.2770528E-1,-1.7412971E-1,-2.0457018E-2,1.7694344E-1,1.9992311E-1,2.465845E-2],"categories":[],"categories_nodes":[],"categories_segments":[],"categories_sizes":[],"default_left":[0,0,0,0,0,0,0,0,0,0,0,0,0,0,0,0,0,0,0],"id":14,"left_children":[1,-1,3,5,-1,7,9,11,-1,13,-1,15,-1,17,-1,-1,-1,-1,-1],"loss_changes":[1.3816538E0,0E0,1.1655349E0,8.6526835E-1,0E0,9.699008E-1,1.0470781E0,9.877394E-1,0E0,1.1503885E0,0E0,4.6202585E-1,0E0,5.657634E-1,0E0,0E0,0E0,0E0,0E0],"parents":[2147483647,0,0,2,2,3,3,5,5,6,6,7,7,9,9,11,11,13,13],"right_children":[2,-1,4,6,-1,8,10,12,-1,14,-1,16,-1,18,-1,-1,-1,-1,-1],"split_conditions":[1.49908E1,-1.9788499E-1,9.861E3,2.00001E0,-1.8509832E-1,9.3479E4,1.34E2,1.5909542E4,2.3251502E-1,5.766E-1,-1.6775724E-1,1.6E1,-1.3542847E-1,1E3,-1.7412971E-1,-2.0457018E-2,1.7694344E-1,1.9992311E-1,2.465845E-2],"split_indices":[9,0,10,4,0,5,10,9,0,18,0,5,0,3,0,0,0,0,0],"split_type":[0,0,0,0,0,0,0,0,0,0,0,0,0,0,0,0,0,0,0],"sum_hessian":[2.3198383E1,2.5408568E0,2.0657528E1,1.9072422E1,1.5851043E0,6.9196987E0,1.2152724E1,4.6743484E0,2.2453504E0,9.888223E0,2.2645016E0,3.1579165E0,1.5164319E0,8.720804E0,1.1674187E0,1.4544445E0,1.703472E0,1.2804664E0,7.4403377E0],"tree_param":{"num_deleted":"0","num_feature":"90","num_nodes":"19","size_leaf_vector":"1"}},{"base_weights":[-7.334291E-2,3.361983E-2,-5.297641E-1,3.5059044E-1,-1.20552935E-1,-2.1446215E-1,1.3488383E-2,-3.0250365E-2,5.5768675E-1,6.779715E-2,-1.82836E-1,-2.779017E-2,2.4596782E-1,1.8592636E-1,-1.4232987E-1,2.867809E-2,1.8852824E-1,8.1417054E-2,-2.0910122E-1],"categories":[],"categories_nodes":[],"categories_segments":[],"categories_sizes":[],"default_left":[1,0,0,0,0,0,0,0,0,0,0,0,0,0,0,1,0,0,0],"id":15,"left_children":[1,3,5,7,9,-1,-1,-1,11,13,-1,-1,-1,15,-1,17,-1,-1,-1],"loss_changes":[1.1237562E0,9.8507416E-1,4.9605548E-1,6.703699E-1,1.3050659E0,0E0,0E0,0E0,8.69938E-1,7.804297E-1,0E0,0E0,0E0,6.4942646E-1,0E0,1.6202359E0,0E0,0E0,0E0],"parents":[2147483647,0,0,1,1,2,2,3,3,4,4,8,8,9,9,13,13,15,15],"right_children":[2,4,6,8,10,-1,-1,-1,12,14,-1,-1,-1,16,-1,18,-1,-1,-1],"split_conditions":[3E-4,2.00001E0,9.847737E6,1.6E1,1.34E2,-2.1446215E-1,1.3488383E-2,-3.0250365E-2,7E-4,5.766E-1,-1.82836E-1,-2.779017E-2,2.4596782E-1,4.07E2,-1.4232987E-1,1.486E-1,1.8852824E-1,8.1417054E-2,-2.0910122E-1],"split_indices":[7,4,24,5,10,0,0,0,1,18,0,0,0,2,0,30,0,0,0],"split_type":[0,0,0,0,0,0,0,0,0,0,0,0,0,0,0,0,0,0,0],"sum_hessian":[2.1653505E1,1.8292889E1,3.3606157E0,5.5691066E0,1.2723783E1,2.3574624E0,1.0031533E0,1.9127754E0,3.6563313E0,9.806955E0,2.9168267E0,1.2364395E0,2.4198918E0,8.592186E0,1.2147696E0,7.125028E0,1.4671582E0,5.808376E0,1.3166523E0],"tree_param":{"num_deleted":"0","num_feature":"90","num_nodes":"19","size_leaf_vector":"1"}},{"base_weights":[-7.0093066E-2,-4.3457258E-1,4.2355187E-2,-1.5032855E-2,-2.0302011E-1,1.595909E-1,-3.068274E-2,-1.4347085E-1,3.998521E-1,7.045666E-3,-1.8010867E-1,-2.0228539E-2,1.8481624E-1,4.9899167E-1,-1.6651557E-1,1.9444226E-1,3.316841E-2,-2.9568553E-1,3.680493E-2],"categories":[],"categories_nodes":[],"categories_segments":[],"categories_sizes":[],"default_left":[0,0,0,0,0,0,0,0,0,0,0,0,0,0,0,0,0,0,0],"id":16,"left_children":[1,3,5,-1,-1,-1,7,9,11,13,-1,-1,-1,15,17,-1,-1,-1,-1],"loss_changes":[8.751725E-1,4.3323356E-1,6.202008E-1,0E0,0E0,0E0,8.1684184E-1,9.071332E-1,3.962248E-1,1.0107138E0,0E0,0E0,0E0,1.0698438E-1,2.2009287E0,0E0,0E0,0E0,0E0],"parents":[2147483647,0,0,1,1,2,2,6,6,7,7,8,8,9,9,13,13,14,14],"right_children":[2,4,6,-1,-1,-1,8,10,12,14,-1,-1,-1,16,18,-1,-1,-1,-1],"split_conditions":[1.9E1,5.6E-3,1.278E-1,-1.5032855E-2,-2.0302011E-1,1.595909E-1,1E0,4.01E2,5.11E2,2.54E2,-1.8010867E-1,-2.0228539E-2,1.8481624E-1,1E3,3.71E2,1.9444226E-1,3.316841E-2,-2.9568553E-1,3.680493E-2],"split_indices":[2,30,30,0,0,0,58,10,2,2,0,0,0,3,2,0,0,0,0],"split_type":[0,0,0,0,0,0,0,0,0,0,0,0,0,0,0,0,0,0,0],"sum_hessian":[1.9904337E1,4.0175557E0,1.5886783E1,2.0190194E0,1.9985361E0,1.246606E0,1.4640176E1,1.2129379E1,2.5107973E0,9.864301E0,2.265078E0,1.0118954E0,1.4989018E0,2.0835683E0,7.780732E0,1.02238E0,1.0611883E0,1.401927E0,6.3788056E0],"tree_param":{"num_deleted":"0","num_feature":"90","num_nodes":"19","size_leaf_vector":"1"}},{"base_weights":[-5.9785195E-2,-1.7483778E-1,1.0885795E-2,1.1512141E-1,-2.899315E-1,-5.785182E-2,4.171427E-1,-5.8845305E-1,4.302176E-2,1.5585506E-1,-4.593758E-1,2.1191674E-1,-1.3041084E-2,-2.6059768E-1,-2.5562886E-3,-2.0355332E-1,4.3676668E-1,1.683585E-2,-2.3441087E-1,4.0020354E-2,-1.537467E-1,1.907766E-1,-3.3316124E-2],"categories":[],"categories_nodes":[],"categories_segments":[],"categories_sizes":[],"default_left":[0,0,0,0,1,0,0,0,0,0,0,0,0,0,0,0,0,0,0,0,0,0,0],"id":17,"left_children":[1,-1,3,5,7,9,11,13,-1,15,17,-1,-1,-1,-1,19,21,-1,-1,-1,-1,-1,-1],"loss_changes":[7.324302E-1,0E0,6.0680175E-1,7.710465E-1,7.299379E-1,9.2702276E-1,7.4059695E-1,5.045947E-1,0E0,8.2116777E-1,6.6068393E-1,0E0,0E0,0E0,0E0,4.7059536E-1,5.494547E-1,0E0,0E0,0E0,0E0,0E0,0E0],"parents":[2147483647,0,0,2,2,3,3,4,4,5,5,6,6,7,7,9,9,10,10,15,15,16,16],"right_children":[2,-1,4,6,8,10,12,14,-1,16,18,-1,-1,-1,-1,20,22,-1,-1,-1,-1,-1,-1],"split_conditions":[2.035773E2,-1.7483778E-1,9.89E-1,4.07E2,-1.2016E0,2.71E2,1.34E2,1E0,4.302176E-2,2.1E1,1.486E-1,2.1191674E-1,-1.3041084E-2,-2.6059768E-1,-2.5562886E-3,8.8E-3,2.7E2,1.683585E-2,-2.3441087E-1,4.0020354E-2,-1.537467E-1,1.907766E-1,-3.3316124E-2],"split_indices":[11,0,18,2,34,2,10,58,0,2,30,0,0,0,0,30,10,0,0,0,0,0,0],"split_type":[0,0,0,0,0,0,0,0,0,0,0,0,0,0,0,0,0,0,0,0,0,0,0],"sum_hessian":[1.8644417E1,1.3567914E0,1.7287624E1,1.3297306E1,3.990319E0,8.969027E0,4.3282785E0,2.1507406E0,1.8395784E0,6.2528534E0,2.7161736E0,2.3309505E0,1.9973283E0,1.1144221E0,1.0363187E0,2.8639703E0,3.388883E0,1.3617672E0,1.3544065E0,1.6416368E0,1.2223334E0,2.36741E0,1.021473E0],"tree_param":{"num_deleted":"0","num_feature":"90","num_nodes":"23","size_leaf_vector":"1"}},{"base_weights":[-6.4320944E-2,-1.5037072E-1,3.646249E-1,-1.5390438E-2,-1.6135058E-1,1.8037608E-1,-2.3618931E-2,1.2662789E-1,-1.2132308E-1,2.5116345E-1,-2.744582E-1,-8.573781E-2,1.8941967E-1,-5.760373E-1,9.7540766E-2,3.9078392E-2,-2.6692823E-1,1.0071821E-1,-4.3800183E-2],"categories":[],"categories_nodes":[],"categories_segments":[],"categories_sizes":[],"default_left":[1,1,0,0,0,0,0,0,0,0,0,0,0,0,0,0,0,0,0],"id":18,"left_children":[1,3,5,7,-1,-1,-1,-1,9,11,13,-1,-1,15,17,-1,-1,-1,-1],"loss_changes":[7.352471E-1,8.31769E-1,4.0110716E-1,6.509757E-1,0E0,0E0,0E0,0E0,7.0753884E-1,9.530055E-1,9.998708E-1,0E0,0E0,1.1773614E0,3.1709197E-1,0E0,0E0,0E0,0E0],"parents":[2147483647,0,0,1,1,2,2,3,3,8,8,9,9,10,10,13,13,14,14],"right_children":[2,4,6,8,-1,-1,-1,-1,10,12,14,-1,-1,16,18,-1,-1,-1,-1],"split_conditions":[7.9E1,3E-4,5.9426627E9,2.00001E0,-1.6135058E-1,1.8037608E-1,-2.3618931E-2,1.2662789E-1,1.278E-1,3E0,3.71E2,-8.573781E-2,1.8941967E-1,1E3,1.179E-1,3.9078392E-2,-2.6692823E-1,1.0071821E-1,-4.3800183E-2],"split_indices":[5,14,11,4,0,0,0,0,30,2,2,0,0,3,18,0,0,0,0],"split_type":[0,0,0,0,0,0,0,0,0,0,0,0,0,0,0,0,0,0,0],"sum_hessian":[1.7434175E1,1.5062055E1,2.3721209E0,1.1941676E1,3.1203785E0,1.3144321E0,1.0576887E0,1.7460893E0,1.0195587E1,2.7838924E0,7.4116945E0,1.2570734E0,1.526819E0,3.790362E0,3.6213326E0,1.3456451E0,2.444717E0,1.6394283E0,1.9819044E0],"tree_param":{"num_deleted":"0","num_feature":"90","num_nodes":"19","size_leaf_vector":"1"}},{"base_weights":[-4.718253E-2,-1.2338126E-1,3.2027853E-1,-4.4650173E-1,8.795256E-3,1.6227621E-1,-1.9942869E-2,1.1648224E-2,-1.8436605E-1,-1.8561167E-1,3.2868516E-1,1.7139187E-1,-5.360181E-1,8.131809E-3,2.0613681E-1,-7.638242E-2,3.978175E-1,9.107697E-3,-2.3085725E-1,1.0802191E-1,-9.41116E-2,1.8237123E-1,-1.3116509E-2],"categories":[],"categories_nodes":[],"categories_segments":[],"categories_sizes":[],"default_left":[1,0,0,0,0,0,0,0,0,0,0,0,0,0,0,0,0,0,0,0,0,0,0],"id":19,"left_children":[1,3,5,7,9,-1,-1,-1,-1,11,13,15,17,19,-1,-1,21,-1,-1,-1,-1,-1,-1],"loss_changes":[5.193129E-1,6.4090586E-1,3.1083196E-1,3.785755E-1,7.8024125E-1,0E0,0E0,0E0,0E0,1.0717065E0,5.381866E-1,5.48611E-1,5.7817924E-1,5.1056427E-1,0E0,0E0,3.4366637E-1,0E0,0E0,0E0,0E0,0E0,0E0],"parents":[2147483647,0,0,1,1,2,2,3,3,4,4,9,9,10,10,11,11,12,12,13,13,16,16],"right_children":[2,4,6,8,10,-1,-1,-1,-1,12,14,16,18,20,-1,-1,22,-1,-1,-1,-1,-1,-1],"split_conditions":[7.9E1,4.4962762E8,5.9426627E9,0E0,4.07E2,1.6227621E-1,-1.9942869E-2,1.1648224E-2,-1.8436605E-1,1.486E-1,1E0,3E0,1E3,1.055E3,2.0613681E-1,-7.638242E-2,3.03E2,9.107697E-3,-2.3085725E-1,1.0802191E-1,-9.41116E-2,1.8237123E-1,-1.3116509E-2],"split_indices":[5,11,11,15,2,0,0,0,0,30,81,2,3,2,0,0,2,0,0,0,0,0,0],"split_type":[0,0,0,0,0,0,0,0,0,0,0,0,0,0,0,0,0,0,0,0,0,0,0],"sum_hessian":[1.6135551E1,1.3914415E1,2.2211356E0,3.3490968E0,1.0565319E1,1.1604751E0,1.0606606E0,1.0591764E0,2.28992E0,6.8326635E0,3.7326553E0,3.637528E0,3.1951354E0,2.5103326E0,1.2223228E0,1.2192149E0,2.418313E0,1.1867118E0,2.0084238E0,1.1423377E0,1.3679948E0,1.3833324E0,1.0349808E0],"tree_param":{"num_deleted":"0","num_feature":"90","num_nodes":"23","size_leaf_vector":"1"}},{"base_weights":[-3.273893E-2,-1.0321869E-1,9.700262E-2,-2.798436E-3,-1.4524035E-1,9.760959E-2,-1.0128171E-1,-2.7224472E-2,2.9071897E-1,1.9123316E-1,-3.4944198E-1,1.9809273E-1,-6.9652446E-2,-5.099748E-2,1.0110541E-1,-1.50025925E-2,-1.4172456E-1],"categories":[],"categories_nodes":[],"categories_segments":[],"categories_sizes":[],"default_left":[0,1,0,0,0,0,0,0,1,0,0,0,0,0,0,0,0],"id":20,"left_children":[1,3,-1,5,-1,7,-1,9,11,13,15,-1,-1,-1,-1,-1,-1],"loss_changes":[4.3363482E-1,5.369096E-1,0E0,4.4112614E-1,0E0,2.5178325E-1,0E0,5.6369156E-1,9.3745744E-1,3.1285217E-1,9.4417185E-2,0E0,0E0,0E0,0E0,0E0,0E0],"parents":[2147483647,0,0,1,1,3,3,5,5,7,7,8,8,9,9,10,10],"right_children":[2,4,-1,6,-1,8,-1,10,12,14,16,-1,-1,-1,-1,-1,-1],"split_conditions":[2.106E3,1E-4,9.700262E-2,1.89E2,-1.4524035E-1,4.07E2,-1.0128171E-1,2.71E2,2E-4,3E0,7.45E-2,1.9809273E-1,-6.9652446E-2,-5.099748E-2,1.0110541E-1,-1.50025925E-2,-1.4172456E-1],"split_indices":[2,7,0,10,0,2,0,2,8,2,18,0,0,0,0,0,0],"split_type":[0,0,0,0,0,0,0,0,0,0,0,0,0,0,0,0,0],"sum_hessian":[1.49488325E1,1.307166E1,1.8771716E0,1.1141729E1,1.9299308E0,9.116246E0,2.0254836E0,6.05868E0,3.057566E0,3.8529553E0,2.2057247E0,1.6374155E0,1.4201505E0,1.0601294E0,2.792826E0,1.0516571E0,1.1540676E0],"tree_param":{"num_deleted":"0","num_feature":"90","num_nodes":"17","size_leaf_vector":"1"}},{"base_weights":[-3.165746E-2,6.830431E-2,-2.972337E-1,-4.7991056E-2,1.6182834E-1,-1.9612926E-1,7.2535135E-2,5.2063618E-2,-1.4167991E-1,-3.8917325E-2,7.105563E-2,-5.912968E-2,1.4643067E-1,9.696632E-2,-1.4576736E-1,-1.9769687E-2,1.15879014E-1],"categories":[],"categories_nodes":[],"categories_segments":[],"categories_sizes":[],"default_left":[0,0,1,1,0,0,0,1,0,0,0,0,0,0,0,0,0],"id":21,"left_children":[1,3,5,7,-1,-1,9,11,-1,-1,-1,13,-1,15,-1,-1,-1],"loss_changes":[4.2247826E-1,6.734801E-1,6.18217E-1,4.6598768E-1,0E0,0E0,1.3127708E-1,4.8046914E-1,0E0,0E0,0E0,6.0094416E-1,0E0,3.5154217E-1,0E0,0E0,0E0],"parents":[2147483647,0,0,1,1,2,2,3,3,6,6,7,7,11,11,13,13],"right_children":[2,4,6,8,-1,-1,10,12,-1,-1,-1,14,-1,16,-1,-1,-1],"split_conditions":[9.89E-1,2.106E3,1.6E1,-4.66E-2,1.6182834E-1,-1.9612926E-1,9E-4,-1.6566E0,-1.4167991E-1,-3.8917325E-2,7.105563E-2,1.34E2,1.4643067E-1,3.71E2,-1.4576736E-1,-1.9769687E-2,1.15879014E-1],"split_indices":[18,2,5,34,0,0,1,34,0,0,0,10,0,2,0,0,0],"split_type":[0,0,0,0,0,0,0,0,0,0,0,0,0,0,0,0,0],"sum_hessian":[1.4149311E1,1.0819649E1,3.3296628E0,9.397933E0,1.4217157E0,1.3041596E0,2.0255032E0,8.314464E0,1.0834694E0,1.0022929E0,1.0232102E0,7.313784E0,1.0006796E0,5.9208922E0,1.3928916E0,4.2823E0,1.6385922E0],"tree_param":{"num_deleted":"0","num_feature":"90","num_nodes":"17","size_leaf_vector":"1"}},{"base_weights":[-2.6474502E-2,-9.591126E-2,8.366284E-2,1.7156461E-2,-1.4086063E-1,2.0865221E-1,-2.2272924E-1,-7.379679E-2,3.7020418E-1,-1.4093918E-1,7.125707E-2,2.096025E-2,1.4359547E-1,6.765653E-2,-4.0067118E-2],"categories":[],"categories_nodes":[],"categories_segments":[],"categories_sizes":[],"default_left":[1,0,0,1,0,0,0,0,0,0,0,0,0,0,0],"id":22,"left_children":[1,3,-1,5,-1,7,9,-1,11,-1,13,-1,-1,-1,-1],"loss_changes":[3.3447158E-1,5.3901875E-1,0E0,5.34027E-1,0E0,5.6248313E-1,4.108248E-1,0E0,1.3380253E-1,0E0,1.3250951E-1,0E0,0E0,0E0,0E0],"parents":[2147483647,0,0,1,1,3,3,5,5,6,6,8,8,10,10],"right_children":[2,4,-1,6,-1,8,10,-1,12,-1,14,-1,-1,-1,-1],"split_conditions":[7.9E1,9.89E-1,8.366284E-2,1.268E-1,-1.4086063E-1,3E0,7.4E-2,-7.379679E-2,5E3,-1.4093918E-1,2.88E-1,2.096025E-2,1.4359547E-1,6.765653E-2,-4.0067118E-2],"split_indices":[5,18,0,31,0,2,18,0,3,0,30,0,0,0,0],"split_type":[0,0,0,0,0,0,0,0,0,0,0,0,0,0,0],"sum_hessian":[1.3513545E1,1.1568716E1,1.944829E0,9.613515E0,1.9552013E0,5.418356E0,4.195159E0,1.2835398E0,4.134816E0,1.9545325E0,2.2406263E0,1.5331441E0,2.601672E0,1.2203568E0,1.0202695E0],"tree_param":{"num_deleted":"0","num_feature":"90","num_nodes":"15","size_leaf_vector":"1"}},{"base_weights":[-2.4561683E-2,-9.4243504E-2,7.7459626E-2,7.821399E-3,-1.5265979E-1,1.122517E-1,-2.6105347E-1,-1.7540263E-2,1.2435545E-1,4.3708853E-2,-1.5361258E-1,1.9597352E-1,-1.0259997E-1,-3.758657E-2,1.4151536E-1],"categories":[],"categories_nodes":[],"categories_segments":[],"categories_sizes":[],"default_left":[0,0,0,0,0,0,0,0,0,0,0,0,0,0,0],"id":23,"left_children":[1,3,-1,5,-1,7,9,11,-1,-1,-1,13,-1,-1,-1],"loss_changes":[3.0158243E-1,5.127225E-1,0E0,3.278333E-1,0E0,3.351296E-1,4.089371E-1,5.3851336E-1,0E0,0E0,0E0,4.790405E-1,0E0,0E0,0E0],"parents":[2147483647,0,0,1,1,3,3,5,5,6,6,7,7,11,11],"right_children":[2,4,-1,6,-1,8,10,12,-1,-1,-1,14,-1,-1,-1],"split_conditions":[1E0,7.25E2,7.7459626E-2,9.89E-1,-1.5265979E-1,4.07E2,1E3,2.71E2,1.2435545E-1,4.3708853E-2,-1.5361258E-1,2.1E1,-1.0259997E-1,-3.758657E-2,1.4151536E-1],"split_indices":[58,10,0,18,0,2,2,2,0,0,0,2,0,0,0],"split_type":[0,0,0,0,0,0,0,0,0,0,0,0,0,0,0],"sum_hessian":[1.30712185E1,1.1021778E1,2.0494404E0,9.631894E0,1.3898844E0,7.3569765E0,2.2749171E0,5.8059125E0,1.5510639E0,1.0281755E0,1.2467418E0,3.7404644E0,2.0654483E0,1.9796565E0,1.760808E0],"tree_param":{"num_deleted":"0","num_feature":"90","num_nodes":"15","size_leaf_vector":"1"}},{"base_weights":[-2.2043088E-2,-9.3109906E-2,8.189005E-2,2.6976615E-2,-1.3741443E-1,1.1326843E-1,-1.0849545E-1,2.3649642E-1,-1.4101335E-1,7.7385274E-3,1.6685966E-1,-9.30096E-2,2.5516853E-2,8.566769E-2,-1.3333473E-1],"categories":[],"categories_nodes":[],"categories_segments":[],"categories_sizes":[],"default_left":[1,0,0,1,0,1,0,0,0,0,0,0,0,0,0],"id":24,"left_children":[1,3,-1,5,-1,7,-1,9,11,13,-1,-1,-1,-1,-1],"loss_changes":[3.102637E-1,5.2486444E-1,0E0,3.6771822E-1,0E0,3.0704722E-1,0E0,4.532991E-1,1.5925172E-1,7.125111E-1,0E0,0E0,0E0,0E0,0E0],"parents":[2147483647,0,0,1,1,3,3,5,5,7,7,8,8,9,9],"right_children":[2,4,-1,6,-1,8,-1,10,12,14,-1,-1,-1,-1,-1],"split_conditions":[9.3442E4,9.615E-1,8.189005E-2,4E-4,-1.3741443E-1,1.486E-1,-1.0849545E-1,3.71E2,9.15E-1,2.71E2,1.6685966E-1,-9.30096E-2,2.5516853E-2,8.566769E-2,-1.3333473E-1],"split_indices":[32,18,0,6,0,30,0,2,30,2,0,0,0,0,0],"split_type":[0,0,0,0,0,0,0,0,0,0,0,0,0,0,0],"sum_hessian":[1.2586558E1,1.0694641E1,1.8919168E0,8.743564E0,1.9510773E0,7.7346816E0,1.0088823E0,5.2570133E0,2.4776683E0,3.6613784E0,1.5956349E0,1.2052065E0,1.2724619E0,2.496217E0,1.1651613E0],"tree_param":{"num_deleted":"0","num_feature":"90","num_nodes":"15","size_leaf_vector":"1"}},{"base_weights":[-2.4145195E-2,-1.0375433E-1,2.0594832E-1,-2.4068477E-3,-1.248902E-1,-2.8273197E-2,1.3014305E-1,1.3967142E-1,-2.5353792E-1,-5.045974E-2,1.3470148E-1,-9.7903505E-2,-1.8476449E-2,1.5311758E-1,-1.1396203E-1,-6.8738826E-2,1.3217281E-1],"categories":[],"categories_nodes":[],"categories_segments":[],"categories_sizes":[],"default_left":[1,0,1,1,0,0,0,0,0,0,0,0,0,0,0,0,0],"id":25,"left_children":[1,3,5,7,-1,-1,-1,9,11,13,-1,-1,-1,15,-1,-1,-1],"loss_changes":[2.6329732E-1,3.3088133E-1,2.960253E-1,3.5360023E-1,0E0,0E0,0E0,3.9555472E-1,2.9897124E-2,3.817831E-1,0E0,0E0,0E0,5.0698215E-1,0E0,0E0,0E0],"parents":[2147483647,0,0,1,1,2,2,3,3,7,7,8,8,9,9,13,13],"right_children":[2,4,6,8,-1,-1,-1,10,12,14,-1,-1,-1,16,-1,-1,-1],"split_conditions":[1.6E1,9.062E-1,-1.127E0,1.486E-1,-1.248902E-1,-2.8273197E-2,1.3014305E-1,3.71E2,9.175E-1,2.71E2,1.3470148E-1,-9.7903505E-2,-1.8476449E-2,3E0,-1.1396203E-1,-6.8738826E-2,1.3217281E-1],"split_indices":[5,18,34,30,0,0,0,2,30,2,0,0,0,2,0,0,0],"split_type":[0,0,0,0,0,0,0,0,0,0,0,0,0,0,0,0,0],"sum_hessian":[1.2207517E1,9.4775095E0,2.7300076E0,7.9177647E0,1.5597442E0,1.4310697E0,1.298938E0,5.3403015E0,2.5774632E0,3.8257122E0,1.5145895E0,1.3610533E0,1.2164098E0,2.6952388E0,1.1304733E0,1.243977E0,1.4512619E0],"tree_param":{"num_deleted":"0","num_feature":"90","num_nodes":"17","size_leaf_vector":"1"}},{"base_weights":[-2.0931667E-2,-9.000365E-2,7.3219255E-2,1.6475894E-2,-1.2605657E-1,1.2596276E-1,-2.4287972E-1,-6.691662E-3,1.2881982E-1,2.9963108E-2,-1.4028032E-1,1.443176E-1,-7.7136815E-2,-3.2122385E-2,1.0833464E-1],"categories":[],"categories_nodes":[],"categories_segments":[],"categories_sizes":[],"default_left":[0,0,0,0,0,0,0,0,0,0,0,0,0,0,0],"id":26,"left_children":[1,3,-1,5,-1,7,9,11,-1,-1,-1,13,-1,-1,-1],"loss_changes":[2.5622514E-1,3.8953793E-1,0E0,2.9158983E-1,0E0,2.8952727E-1,2.8315634E-1,2.6173627E-1,0E0,0E0,0E0,2.7552631E-1,0E0,0E0,0E0],"parents":[2147483647,0,0,1,1,3,3,5,5,6,6,7,7,11,11],"right_children":[2,4,-1,6,-1,8,10,12,-1,-1,-1,14,-1,-1,-1],"split_conditions":[1E0,1.89E2,7.3219255E-2,9.89E-1,-1.2605657E-1,4.07E2,1.7944219E4,2.95E2,1.2881982E-1,2.9963108E-2,-1.4028032E-1,2.1E1,-7.7136815E-2,-3.2122385E-2,1.0833464E-1],"split_indices":[58,10,0,18,0,2,25,2,0,0,0,2,0,0,0],"split_type":[0,0,0,0,0,0,0,0,0,0,0,0,0,0,0],"sum_hessian":[1.1798359E1,9.882749E0,1.9156106E0,8.191286E0,1.6914628E0,6.1214447E0,2.0698414E0,4.9398293E0,1.1816152E0,1.0396557E0,1.0301856E0,3.3459523E0,1.5938772E0,1.7837168E0,1.5622355E0],"tree_param":{"num_deleted":"0","num_feature":"90","num_nodes":"15","size_leaf_vector":"1"}},{"base_weights":[-1.7724313E-2,-8.8737875E-2,7.96401E-2,1.293E-2,-1.1408319E-1,1.22901574E-1,-1.1336735E-1,1.8573315E-1,-3.2732257E-1,-3.6915377E-2,1.03041336E-1,-1.3768731E-1,-1.6029254E-2],"categories":[],"categories_nodes":[],"categories_segments":[],"categories_sizes":[],"default_left":[1,1,0,0,0,0,0,0,0,0,0,0,0],"id":27,"left_children":[1,3,-1,5,-1,-1,7,9,11,-1,-1,-1,-1],"loss_changes":[2.732589E-1,3.213752E-1,0E0,4.9155846E-1,0E0,0E0,5.421232E-1,2.2611369E-1,1.4661968E-1,0E0,0E0,0E0,0E0],"parents":[2147483647,0,0,1,1,3,3,6,6,7,7,8,8],"right_children":[2,4,-1,6,-1,-1,8,10,12,-1,-1,-1,-1],"split_conditions":[7.9E1,3E-4,7.96401E-2,2.00001E0,-1.1408319E-1,1.22901574E-1,1.486E-1,3E0,4.07E2,-3.6915377E-2,1.03041336E-1,-1.3768731E-1,-1.6029254E-2],"split_indices":[5,14,0,4,0,0,30,2,2,0,0,0,0],"split_type":[0,0,0,0,0,0,0,0,0,0,0,0,0],"sum_hessian":[1.1416541E1,9.676656E0,1.7398851E0,7.883211E0,1.7934448E0,1.3617603E0,6.5214505E0,2.7745924E0,3.7468584E0,1.0124815E0,1.762111E0,2.0742583E0,1.6725999E0],"tree_param":{"num_deleted":"0","num_feature":"90","num_nodes":"13","size_leaf_vector":"1"}},{"base_weights":[-1.3070782E-2,-7.2871424E-2,6.600143E-2,-3.0028725E-1,2.1582076E-2,5.4054763E-3,-1.403947E-1,1.4473459E-1,-9.095614E-2,-3.7957694E-2,3.4949246E-1,6.220028E-2,-8.428185E-2,1.425576E-1,1.4640274E-2],"categories":[],"categories_nodes":[],"categories_segments":[],"categories_sizes":[],"default_left":[1,0,0,0,1,0,0,0,0,0,0,0,0,0,0],"id":28,"left_children":[1,3,-1,5,7,-1,-1,9,-1,11,13,-1,-1,-1,-1],"loss_changes":[1.8240844E-1,2.2666833E-1,0E0,1.7257854E-1,3.708724E-1,0E0,0E0,2.603297E-1,0E0,3.2004285E-1,9.822154E-2,0E0,0E0,0E0,0E0],"parents":[2147483647,0,0,1,1,3,3,4,4,7,7,9,9,10,10],"right_children":[2,4,-1,6,8,-1,-1,10,-1,12,14,-1,-1,-1,-1],"split_conditions":[7.9E1,4.4962762E8,6.600143E-2,1.246219E2,1.486E-1,5.4054763E-3,-1.403947E-1,3.71E2,-9.095614E-2,1.278E-1,9.92E2,6.220028E-2,-8.428185E-2,1.425576E-1,1.4640274E-2],"split_indices":[5,11,0,32,30,0,0,2,0,30,2,0,0,0,0],"split_type":[0,0,0,0,0,0,0,0,0,0,0,0,0,0,0],"sum_hessian":[1.0936832E1,9.250709E0,1.6861238E0,2.0751529E0,7.175556E0,1.0240104E0,1.0511425E0,5.604627E0,1.570929E0,3.3924148E0,2.2122123E0,1.7611893E0,1.6312253E0,1.1508054E0,1.0614071E0],"tree_param":{"num_deleted":"0","num_feature":"90","num_nodes":"15","size_leaf_vector":"1"}},{"base_weights":[-1.1710811E-2,-6.592002E-2,5.2579314E-2,2.4300124E-1,-7.269028E-2,-2.5703805E-2,1.5672188E-1,1.0430649E-1,-1.2689993E-1,3.607116E-2,-4.7480185E-2,1.0171395E-1,-4.504016E-2],"categories":[],"categories_nodes":[],"categories_segments":[],"categories_sizes":[],"default_left":[0,0,0,0,0,0,0,1,0,0,0,0,0],"id":29,"left_children":[1,-1,3,5,7,9,-1,11,-1,-1,-1,-1,-1],"loss_changes":[1.6698983E-1,0E0,2.4870096E-1,3.1925884E-1,4.5408347E-1,7.7642255E-2,0E0,3.6116934E-1,0E0,0E0,0E0,0E0,0E0],"parents":[2147483647,0,0,2,2,3,3,4,4,5,5,7,7],"right_children":[2,-1,4,6,8,10,-1,12,-1,-1,-1,-1,-1],"split_conditions":[1.9E1,-6.592002E-2,4.4E-1,7.9E1,9.615E-1,8.949177E5,1.5672188E-1,1.278E-1,-1.2689993E-1,3.607116E-2,-4.7480185E-2,1.0171395E-1,-4.504016E-2],"split_indices":[2,0,26,5,18,24,0,30,0,0,0,0,0],"split_type":[0,0,0,0,0,0,0,0,0,0,0,0,0],"sum_hessian":[1.0622459E1,1.9370232E0,8.685436E0,3.0735364E0,5.6119E0,2.0296338E0,1.0439028E0,4.194725E0,1.4171748E0,1.0103306E0,1.0193032E0,2.008873E0,2.185852E0],"tree_param":{"num_deleted":"0","num_feature":"90","num_nodes":"13","size_leaf_vector":"1"}},{"base_weights":[-6.651197E-3,-6.563109E-2,6.48002E-2,3.0597063E-2,-1.11472316E-1,1.3837339E-1,-6.74009E-2,8.902364E-3,1.22383885E-1,1.6562396E-1,-6.506065E-2,1.1809159E-1,-3.1313382E-2],"categories":[],"categories_nodes":[],"categories_segments":[],"categories_sizes":[],"default_left":[0,0,0,0,0,0,0,0,0,1,0,0,0],"id":30,"left_children":[1,3,-1,5,-1,7,-1,9,-1,11,-1,-1,-1],"loss_changes":[1.6304988E-1,2.978095E-1,0E0,2.6013544E-1,0E0,2.2227857E-1,0E0,2.26809E-1,0E0,2.7204096E-1,0E0,0E0,0E0],"parents":[2147483647,0,0,1,1,3,3,5,5,7,7,9,9],"right_children":[2,4,-1,6,-1,8,-1,10,-1,12,-1,-1,-1],"split_conditions":[1E0,1.89E2,6.48002E-2,9.89E-1,-1.11472316E-1,4.07E2,-6.74009E-2,2.71E2,1.22383885E-1,3.2E-3,-6.506065E-2,1.1809159E-1,-3.1313382E-2],"split_indices":[58,10,0,18,0,2,0,2,0,30,0,0,0],"split_type":[0,0,0,0,0,0,0,0,0,0,0,0,0],"sum_hessian":[1.0336713E1,8.729517E0,1.6071961E0,7.3254414E0,1.4040755E0,5.472725E0,1.8527164E0,4.3949385E0,1.0777864E0,2.7514184E0,1.6435199E0,1.2434356E0,1.5079829E0],"tree_param":{"num_deleted":"0","num_feature":"90","num_nodes":"13","size_leaf_vector":"1"}},{"base_weights":[-1.841589E-3,-8.587181E-2,1.6625616E-1,2.124666E-2,-1.1050261E-1,1.1231948E-1,-2.6237065E-2,-9.404653E-2,1.9099057E-1,4.3355893E-2,-8.624448E-2,8.588463E-2,-9.635517E-4],"categories":[],"categories_nodes":[],"categories_segments":[],"categories_sizes":[],"default_left":[1,0,0,0,0,0,0,0,0,0,0,0,0],"id":31,"left_children":[1,3,5,7,-1,-1,-1,9,11,-1,-1,-1,-1],"loss_changes":[1.71008E-1,2.516176E-1,2.460176E-1,1.5079126E-1,0E0,0E0,0E0,2.5899097E-1,5.7830453E-2,0E0,0E0,0E0,0E0],"parents":[2147483647,0,0,1,1,2,2,3,3,7,7,8,8],"right_children":[2,4,6,8,-1,-1,-1,10,12,-1,-1,-1,-1],"split_conditions":[1.49908E1,1.34E2,1E0,3.71E2,-1.1050261E-1,1.1231948E-1,-2.6237065E-2,1.278E-1,5.76E2,4.3355893E-2,-8.624448E-2,8.588463E-2,-9.635517E-4],"split_indices":[9,10,18,2,0,0,0,30,2,0,0,0,0],"split_type":[0,0,0,0,0,0,0,0,0,0,0,0,0],"sum_hessian":[1.0095793E1,7.0571547E0,3.0386386E0,5.787282E0,1.2698728E0,1.4079242E0,1.6307143E0,3.7119842E0,2.0752976E0,1.7753266E0,1.9366575E0,1.0741092E0,1.0011884E0],"tree_param":{"num_deleted":"0","num_feature":"90","num_nodes":"13","size_leaf_vector":"1"}},{"base_weights":[2.1671441E-4,-7.2650954E-2,6.403364E-2,-7.931032E-3,8.473923E-2,1.2794986E-1,-8.414102E-2,9.53248E-2,1.6389651E-2,7.453165E-2,-1.6048479E-1,-6.615671E-2,-8.236962E-3],"categories":[],"categories_nodes":[],"categories_segments":[],"categories_sizes":[],"default_left":[0,0,0,0,0,0,0,0,0,0,0,0,0],"id":32,"left_children":[1,-1,3,5,-1,7,-1,-1,9,-1,11,-1,-1],"loss_changes":[1.8343773E-1,0E0,1.4976025E-1,3.3332187E-1,0E0,1.22816175E-1,0E0,0E0,2.3944028E-1,0E0,2.0834573E-2,0E0,0E0],"parents":[2147483647,0,0,2,2,3,3,5,5,8,8,10,10],"right_children":[2,-1,4,6,-1,8,-1,-1,10,-1,12,-1,-1],"split_conditions":[5E0,-7.2650954E-2,1E0,1E3,8.473923E-2,2E-4,-8.414102E-2,9.53248E-2,1.486E-1,7.453165E-2,2.00001E0,-6.615671E-2,-8.236962E-3],"split_indices":[2,0,58,2,0,7,0,0,30,0,81,0,0],"split_type":[0,0,0,0,0,0,0,0,0,0,0,0,0],"sum_hessian":[9.856398E0,1.4717406E0,8.384657E0,7.0316734E0,1.3529832E0,5.0462637E0,1.9854097E0,1.1838784E0,3.8623855E0,1.4956164E0,2.366769E0,1.1775932E0,1.1891757E0],"tree_param":{"num_deleted":"0","num_feature":"90","num_nodes":"13","size_leaf_vector":"1"}},{"base_weights":[2.5542341E-3,5.6540743E-2,-7.0296764E-2,9.194982E-2,-5.3079206E-2,7.2974026E-2,-1.1012398E-1,1.8980521E-1,-6.0946453E-2,-6.347237E-3,1.0370056E-1],"categories":[],"categories_nodes":[],"categories_segments":[],"categories_sizes":[],"default_left":[1,0,0,0,0,1,0,0,0,0,0],"id":33,"left_children":[1,3,-1,-1,5,7,-1,9,-1,-1,-1],"loss_changes":[1.4909962E-1,2.7539614E-1,0E0,0E0,3.2072973E-1,2.3642206E-1,0E0,1.6602421E-1,0E0,0E0,0E0],"parents":[2147483647,0,0,1,1,4,4,5,5,7,7],"right_children":[2,4,-1,-1,6,8,-1,10,-1,-1,-1],"split_conditions":[3E-4,4.4E-1,-7.0296764E-2,9.194982E-2,9.615E-1,1.486E-1,-1.1012398E-1,6.92E-2,-6.0946453E-2,-6.347237E-3,1.0370056E-1],"split_indices":[7,26,0,0,18,30,0,18,0,0,0],"split_type":[0,0,0,0,0,0,0,0,0,0,0],"sum_hessian":[9.623183E0,8.457047E0,1.1661355E0,2.0306594E0,6.4263883E0,5.133273E0,1.2931148E0,3.826772E0,1.3065013E0,1.9932046E0,1.8335675E0],"tree_param":{"num_deleted":"0","num_feature":"90","num_nodes":"11","size_leaf_vector":"1"}},{"base_weights":[-2.820229E-3,-6.8205036E-2,6.02917E-2,2.8142047E-1,-6.6178255E-2,-7.6995175E-3,1.392424E-1,4.982013E-2,-1.7723067E-1,-1.0691451E-1,1.5148906E-2],"categories":[],"categories_nodes":[],"categories_segments":[],"categories_sizes":[],"default_left":[0,0,0,0,0,0,0,0,0,0,0],"id":34,"left_children":[1,-1,3,5,7,-1,-1,-1,9,-1,-1],"loss_changes":[1.616975E-1,0E0,2.687109E-1,2.0515904E-1,1.9703706E-1,0E0,0E0,0E0,2.170897E-1,0E0,0E0],"parents":[2147483647,0,0,2,2,3,3,4,4,8,8],"right_children":[2,-1,4,6,8,-1,-1,-1,10,-1,-1],"split_conditions":[1.6E1,-6.8205036E-2,2.00001E0,4.47E-2,1.278E-1,-7.6995175E-3,1.392424E-1,4.982013E-2,3.71E2,-1.0691451E-1,1.5148906E-2],"split_indices":[5,0,4,15,30,0,0,0,2,0,0],"split_type":[0,0,0,0,0,0,0,0,0,0,0],"sum_hessian":[9.44353E0,1.5010377E0,7.942492E0,2.444014E0,5.498478E0,1.232381E0,1.211633E0,1.6184335E0,3.8800447E0,1.8554364E0,2.0246081E0],"tree_param":{"num_deleted":"0","num_feature":"90","num_nodes":"11","size_leaf_vector":"1"}},{"base_weights":[3.6620087E-4,-6.797466E-2,5.7097305E-2,1.3433377E-1,-9.1401845E-2,2.5933734E-1,-1.7758245E-2,-8.43813E-2,5.5522267E-2,1.0283631E-1,2.6279878E-2,-5.620476E-2,4.187479E-2],"categories":[],"categories_nodes":[],"categories_segments":[],"categories_sizes":[],"default_left":[0,0,0,1,1,0,0,0,0,0,0,0,0],"id":35,"left_children":[1,-1,3,5,7,9,11,-1,-1,-1,-1,-1,-1],"loss_changes":[1.445988E-1,0E0,1.15272515E-1,1.2461358E-1,2.445824E-1,2.0544246E-2,1.2710768E-1,0E0,0E0,0E0,0E0,0E0,0E0],"parents":[2147483647,0,0,2,2,3,3,4,4,5,5,6,6],"right_children":[2,-1,4,6,8,10,12,-1,-1,-1,-1,-1,-1],"split_conditions":[3E0,-6.797466E-2,9.062E-1,1.268E-1,9.3442E4,2.71E2,7.4E-2,-8.43813E-2,5.5522267E-2,1.0283631E-1,2.6279878E-2,-5.620476E-2,4.187479E-2],"split_indices":[2,0,18,31,32,2,18,0,0,0,0,0,0],"split_type":[0,0,0,0,0,0,0,0,0,0,0,0,0],"sum_hessian":[9.226114E0,1.2463241E0,7.97979E0,5.3122206E0,2.6675696E0,2.5287342E0,2.7834864E0,1.5712056E0,1.096364E0,1.0315104E0,1.497224E0,1.2478071E0,1.5356792E0],"tree_param":{"num_deleted":"0","num_feature":"90","num_nodes":"13","size_leaf_vector":"1"}},{"base_weights":[2.1134957E-3,5.0643854E-2,-6.2697485E-2,8.309108E-2,-4.9038995E-2,5.8128595E-2,-9.2331894E-2,6.965016E-2,-8.734269E-2,-7.522746E-2,3.587897E-2],"categories":[],"categories_nodes":[],"categories_segments":[],"categories_sizes":[],"default_left":[1,0,0,0,0,1,0,0,0,0,0],"id":36,"left_children":[1,3,-1,-1,5,7,-1,-1,9,-1,-1],"loss_changes":[1.13567546E-1,2.1613595E-1,0E0,0E0,2.142724E-1,1.6836709E-1,0E0,0E0,1.6230758E-1,0E0,0E0],"parents":[2147483647,0,0,1,1,4,4,5,5,8,8],"right_children":[2,4,-1,-1,6,8,-1,-1,10,-1,-1],"split_conditions":[3E-4,4.4E-1,-6.2697485E-2,8.309108E-2,9.615E-1,1.6E-3,-9.2331894E-2,6.965016E-2,7.32E-2,-7.522746E-2,3.587897E-2],"split_indices":[7,26,0,0,18,30,0,0,18,0,0],"split_type":[0,0,0,0,0,0,0,0,0,0,0],"sum_hessian":[9.052058E0,7.978097E0,1.073961E0,1.8956273E0,6.08247E0,4.849247E0,1.2332231E0,1.936498E0,2.9127488E0,1.50921E0,1.4035388E0],"tree_param":{"num_deleted":"0","num_feature":"90","num_nodes":"11","size_leaf_vector":"1"}},{"base_weights":[-2.6678299E-3,-5.8660943E-2,5.30357E-2,2.602112E-1,-6.487486E-2,1.3366564E-1,-9.61398E-3,1.3190061E-1,-2.1179007E-1,-2.2859622E-2,7.848027E-2,-9.96069E-2,8.6311117E-4],"categories":[],"categories_nodes":[],"categories_segments":[],"categories_sizes":[],"default_left":[0,0,0,1,0,0,0,0,0,0,0,0,0],"id":37,"left_children":[1,-1,3,5,7,-1,-1,9,11,-1,-1,-1,-1],"loss_changes":[1.17247716E-1,0E0,2.2465377E-1,1.9219293E-1,2.077775E-1,0E0,0E0,1.0833946E-1,1.02788195E-1,0E0,0E0,0E0,0E0],"parents":[2147483647,0,0,2,2,3,3,4,4,7,7,8,8],"right_children":[2,-1,4,6,8,-1,-1,10,12,-1,-1,-1,-1],"split_conditions":[1.6E1,-5.8660943E-2,2.00001E0,1.5909542E4,1.486E-1,1.3366564E-1,-9.61398E-3,4E0,4.07E2,-2.2859622E-2,7.848027E-2,-9.96069E-2,8.6311117E-4],"split_indices":[5,0,4,9,30,0,0,2,2,0,0,0,0],"split_type":[0,0,0,0,0,0,0,0,0,0,0,0,0],"sum_hessian":[8.948123E0,1.4426761E0,7.5054474E0,2.284536E0,5.2209115E0,1.0770113E0,1.2075245E0,2.2754354E0,2.9454758E0,1.0320505E0,1.243385E0,1.537596E0,1.40788E0],"tree_param":{"num_deleted":"0","num_feature":"90","num_nodes":"13","size_leaf_vector":"1"}},{"base_weights":[8.377149E-4,-5.1986877E-2,5.300367E-2,8.872397E-2,-3.6730904E-2,5.664129E-2,-7.885782E-2,1.8467939E-1,-3.991614E-2,-2.9031577E-2,9.82914E-2],"categories":[],"categories_nodes":[],"categories_segments":[],"categories_sizes":[],"default_left":[0,0,0,0,0,1,0,0,0,0,0],"id":38,"left_children":[1,-1,3,-1,5,7,-1,9,-1,-1,-1],"loss_changes":[9.7332776E-2,0E0,1.9019529E-1,0E0,1.6058412E-1,1.6317302E-1,0E0,1.8563631E-1,0E0,0E0,0E0],"parents":[2147483647,0,0,2,2,4,4,5,5,7,7],"right_children":[2,-1,4,-1,6,8,-1,10,-1,-1,-1],"split_conditions":[1.4775405E7,-5.1986877E-2,4.4E-1,8.872397E-2,9.615E-1,1.278E-1,-7.885782E-2,5E3,-3.991614E-2,-2.9031577E-2,9.82914E-2],"split_indices":[24,0,26,0,18,30,0,3,0,0,0],"split_type":[0,0,0,0,0,0,0,0,0,0,0],"sum_hessian":[8.704148E0,1.4712615E0,7.232887E0,1.3325055E0,5.900381E0,4.706505E0,1.1938766E0,2.8256931E0,1.8808115E0,1.0606346E0,1.7650586E0],"tree_param":{"num_deleted":"0","num_feature":"90","num_nodes":"11","size_leaf_vector":"1"}},{"base_weights":[-5.478379E-4,-5.6138407E-2,6.057543E-2,8.592495E-2,-1.3637863E-2,6.2547185E-2,-1.04977466E-1,-9.624586E-2,4.634779E-2,-6.643029E-2,2.2087276E-1,1.059356E-1,-5.7965294E-3],"categories":[],"categories_nodes":[],"categories_segments":[],"categories_sizes":[],"default_left":[0,0,0,0,0,0,0,0,0,0,0,0,0],"id":39,"left_children":[1,-1,3,-1,5,-1,7,-1,9,-1,11,-1,-1],"loss_changes":[1.2103838E-1,0E0,1.3800856E-1,0E0,1.6343893E-1,0E0,1.9807059E-1,0E0,2.4384043E-1,0E0,1.0293865E-1,0E0,0E0],"parents":[2147483647,0,0,2,2,4,4,6,6,8,8,10,10],"right_children":[2,-1,4,-1,6,-1,8,-1,10,-1,12,-1,-1],"split_conditions":[1.9E1,-5.6138407E-2,6.86E-2,8.592495E-2,1E3,6.2547185E-2,4.07E2,-9.624586E-2,9.3479E4,-6.643029E-2,1.055E3,1.059356E-1,-5.7965294E-3],"split_indices":[2,0,18,0,3,0,2,0,5,0,2,0,0],"split_type":[0,0,0,0,0,0,0,0,0,0,0,0,0],"sum_hessian":[8.619366E0,1.6182214E0,7.0011444E0,1.0243969E0,5.9767475E0,1.3678037E0,4.608944E0,1.437915E0,3.171029E0,1.1451646E0,2.0258644E0,1.0033212E0,1.0225432E0],"tree_param":{"num_deleted":"0","num_feature":"90","num_nodes":"13","size_leaf_vector":"1"}},{"base_weights":[2.9473368E-3,6.460462E-2,-5.15027E-2,-4.6339873E-2,1.6711348E-1,-9.009189E-3,9.913311E-2,5.8393095E-2,-5.9635703E-2],"categories":[],"categories_nodes":[],"categories_segments":[],"categories_sizes":[],"default_left":[0,0,0,0,0,1,0,0,0],"id":40,"left_children":[1,3,-1,-1,5,7,-1,-1,-1],"loss_changes":[1.1211318E-1,1.978522E-1,0E0,0E0,1.6692114E-1,1.822976E-1,0E0,0E0,0E0],"parents":[2147483647,0,0,1,1,4,4,5,5],"right_children":[2,4,-1,-1,6,8,-1,-1,-1],"split_conditions":[1.89E2,9.3479E4,-5.15027E-2,-4.6339873E-2,3.71E2,1.6E-3,9.913311E-2,5.8393095E-2,-5.9635703E-2],"split_indices":[10,5,0,0,2,30,0,0,0],"split_type":[0,0,0,0,0,0,0,0,0],"sum_hessian":[8.382763E0,6.6609097E0,1.7218531E0,1.9617063E0,4.6992035E0,2.7156725E0,1.9835311E0,1.2975738E0,1.4180987E0],"tree_param":{"num_deleted":"0","num_feature":"90","num_nodes":"9","size_leaf_vector":"1"}},{"base_weights":[2.5333476E-3,1.4761296E-1,-6.266094E-2,8.340691E-2,-1.346956E-2,5.3790696E-2,-8.845866E-2,1.4216104E-1,-3.158948E-2,8.810573E-2,-8.596183E-3],"categories":[],"categories_nodes":[],"categories_segments":[],"categories_sizes":[],"default_left":[0,0,0,0,0,0,0,0,0,0,0],"id":41,"left_children":[1,3,5,-1,-1,7,-1,9,-1,-1,-1],"loss_changes":[9.651932E-2,9.178325E-2,2.0698205E-1,0E0,0E0,9.30375E-2,0E0,1.1182906E-1,0E0,0E0,0E0],"parents":[2147483647,0,0,1,1,2,2,5,5,7,7],"right_children":[2,4,6,-1,-1,8,-1,10,-1,-1,-1],"split_conditions":[-4.66E-2,1.7185301E8,1E0,8.340691E-2,-1.346956E-2,1E0,-8.845866E-2,1.278E-1,-3.158948E-2,8.810573E-2,-8.596183E-3],"split_indices":[34,11,10,0,0,81,0,30,0,0,0],"split_type":[0,0,0,0,0,0,0,0,0,0,0],"sum_hessian":[8.22673E0,2.1586945E0,6.0680356E0,1.0221119E0,1.1365827E0,4.5529985E0,1.5150373E0,2.995481E0,1.5575174E0,1.2061878E0,1.7892932E0],"tree_param":{"num_deleted":"0","num_feature":"90","num_nodes":"11","size_leaf_vector":"1"}},{"base_weights":[4.809901E-3,-5.7479676E-2,5.6872062E-2,-1.3867363E-2,7.9010166E-2,7.5386636E-2,-1.4931406E-1,-2.50369E-1,2.9982517E-2,2.1947687E-2,-1.3313158E-1],"categories":[],"categories_nodes":[],"categories_segments":[],"categories_sizes":[],"default_left":[0,0,0,0,0,0,1,0,0,0,0],"id":42,"left_children":[1,-1,3,5,-1,-1,7,9,-1,-1,-1],"loss_changes":[1.0439476E-1,0E0,1.2049485E-1,2.8561378E-1,0E0,0E0,1.5599126E-1,2.8180695E-1,0E0,0E0,0E0],"parents":[2147483647,0,0,2,2,3,3,6,6,7,7],"right_children":[2,-1,4,6,-1,-1,8,10,-1,-1,-1],"split_conditions":[3E0,-5.7479676E-2,1E0,2.71E2,7.9010166E-2,7.5386636E-2,4.3538344E4,1.179E-1,2.9982517E-2,2.1947687E-2,-1.3313158E-1],"split_indices":[2,0,58,2,0,0,16,18,0,0,0],"split_type":[0,0,0,0,0,0,0,0,0,0,0],"sum_hessian":[8.143655E0,1.1447595E0,6.9988947E0,5.9078693E0,1.0910257E0,1.7083235E0,4.199546E0,2.9849148E0,1.2146308E0,1.3493778E0,1.6355371E0],"tree_param":{"num_deleted":"0","num_feature":"90","num_nodes":"11","size_leaf_vector":"1"}},{"base_weights":[4.7161505E-3,-4.759198E-2,5.946443E-2,1.4119534E-1,-1.03487E-1,-2.2001304E-3,8.226678E-2,2.934705E-2,-7.6182894E-2,-2.7370965E-2,2.5501018E-2],"categories":[],"categories_nodes":[],"categories_segments":[],"categories_sizes":[],"default_left":[0,0,0,0,0,1,0,0,0,0,0],"id":43,"left_children":[1,-1,3,5,7,9,-1,-1,-1,-1,-1],"loss_changes":[8.932841E-2,0E0,1.1340954E-1,1.02910824E-1,1.1737156E-1,3.549801E-2,0E0,0E0,0E0,0E0,0E0],"parents":[2147483647,0,0,2,2,3,3,4,4,5,5],"right_children":[2,-1,4,6,8,10,-1,-1,-1,-1,-1],"split_conditions":[1.9E1,-4.759198E-2,9.89E-1,2.00001E0,4.4E-1,1.425E-1,8.226678E-2,2.934705E-2,-7.6182894E-2,-2.7370965E-2,2.5501018E-2],"split_indices":[2,0,18,81,26,30,0,0,0,0,0],"split_type":[0,0,0,0,0,0,0,0,0,0,0],"sum_hessian":[7.9333377E0,1.5150774E0,6.4182606E0,4.363293E0,2.0549674E0,2.5731025E0,1.7901908E0,1.0285647E0,1.0264026E0,1.2502873E0,1.3228151E0],"tree_param":{"num_deleted":"0","num_feature":"90","num_nodes":"11","size_leaf_vector":"1"}},{"base_weights":[1.8518954E-3,-1.2366299E-1,6.7384236E-2,2.9617874E-2,-8.749953E-2,-6.7548804E-2,7.5966366E-2,1.2423468E-1,-8.2396924E-2,-5.833773E-3,6.1811946E-2],"categories":[],"categories_nodes":[],"categories_segments":[],"categories_sizes":[],"default_left":[0,0,0,0,0,0,0,0,0,0,0],"id":44,"left_children":[1,3,5,-1,-1,7,-1,9,-1,-1,-1],"loss_changes":[8.10336E-2,1.5524705E-1,1.7894633E-1,0E0,0E0,2.1399742E-1,0E0,3.973637E-2,0E0,0E0,0E0],"parents":[2147483647,0,0,1,1,2,2,5,5,7,7],"right_children":[2,4,6,-1,-1,8,-1,10,-1,-1,-1],"split_conditions":[6E-3,3E-4,4.07E2,2.9617874E-2,-8.749953E-2,1.486E-1,7.5966366E-2,6E0,-8.2396924E-2,-5.833773E-3,6.1811946E-2],"split_indices":[1,14,2,0,0,30,0,2,0,0,0],"split_type":[0,0,0,0,0,0,0,0,0,0,0],"sum_hessian":[7.8386807E0,2.3845227E0,5.454158E0,1.2036145E0,1.1809083E0,3.5286102E0,1.9255477E0,2.0398424E0,1.4887679E0,1.0166001E0,1.0232422E0],"tree_param":{"num_deleted":"0","num_feature":"90","num_nodes":"11","size_leaf_vector":"1"}},{"base_weights":[2.9349903E-4,4.541963E-2,-4.766908E-2,-1.2295776E-1,3.3177752E-2,-2.4626818E-1,1.7998355E-2,6.219675E-3,-1.3310939E-1],"categories":[],"categories_nodes":[],"categories_segments":[],"categories_sizes":[],"default_left":[0,0,1,0,0,0,0,0,0],"id":45,"left_children":[1,-1,3,5,-1,7,-1,-1,-1],"loss_changes":[6.9938615E-2,0E0,1.0093443E-1,1.3751009E-1,0E0,1.9084208E-1,0E0,0E0,0E0],"parents":[2147483647,0,0,2,2,3,3,5,5],"right_children":[2,-1,4,6,-1,8,-1,-1,-1],"split_conditions":[1E3,4.541963E-2,2.035773E2,3.71E2,3.3177752E-2,1.134E-1,1.7998355E-2,6.219675E-3,-1.3310939E-1],"split_indices":[3,0,11,2,0,30,0,0,0],"split_type":[0,0,0,0,0,0,0,0,0],"sum_hessian":[7.654358E0,1.3246064E0,6.3297515E0,4.440416E0,1.8893355E0,2.4458358E0,1.99458E0,1.4201883E0,1.0256475E0],"tree_param":{"num_deleted":"0","num_feature":"90","num_nodes":"9","size_leaf_vector":"1"}},{"base_weights":[-3.9444575E-3,-1.2570426E-1,6.1670642E-2,1.957304E-2,-7.8827545E-2,1.855918E-1,-8.4236905E-2,-1.2380424E-2,9.397882E-2,-5.8813095E-2,2.3330385E-2],"categories":[],"categories_nodes":[],"categories_segments":[],"categories_sizes":[],"default_left":[0,0,1,0,0,0,0,0,0,0,0],"id":46,"left_children":[1,3,5,-1,-1,7,9,-1,-1,-1,-1],"loss_changes":[7.601125E-2,1.0405479E-1,1.281485E-1,0E0,0E0,1.1942959E-1,7.946985E-2,0E0,0E0,0E0,0E0],"parents":[2147483647,0,0,1,1,2,2,5,5,6,6],"right_children":[2,4,6,-1,-1,8,10,-1,-1,-1,-1],"split_conditions":[6E-3,3E-4,1.6E-3,1.957304E-2,-7.8827545E-2,5E3,7.4E-2,-1.2380424E-2,9.397882E-2,-5.8813095E-2,2.3330385E-2],"split_indices":[1,14,30,0,0,3,18,0,0,0,0],"split_type":[0,0,0,0,0,0,0,0,0,0,0],"sum_hessian":[7.5438213E0,2.3210123E0,5.222809E0,1.1887589E0,1.1322533E0,2.6771169E0,2.545692E0,1.2077732E0,1.4693437E0,1.3818833E0,1.1638087E0],"tree_param":{"num_deleted":"0","num_feature":"90","num_nodes":"11","size_leaf_vector":"1"}},{"base_weights":[-4.4502397E-3,4.4393186E-2,-5.3089585E-2,9.7412154E-2,-1.3787133E-1,-3.301263E-2,7.7817306E-2,2.2783753E-2,-2.2225295E-1,-1.0042759E-1,8.90365E-3],"categories":[],"categories_nodes":[],"categories_segments":[],"categories_sizes":[],"default_left":[0,0,0,0,0,0,0,0,1,0,0],"id":47,"left_children":[1,-1,3,5,7,-1,-1,-1,9,-1,-1],"loss_changes":[7.065071E-2,0E0,1.04750186E-1,1.3489357E-1,1.06945574E-1,0E0,0E0,0E0,1.1860721E-1,0E0,0E0],"parents":[2147483647,0,0,2,2,3,3,4,4,8,8],"right_children":[2,-1,4,6,8,-1,-1,-1,10,-1,-1],"split_conditions":[1E3,4.4393186E-2,6.86E-2,5E0,4.4E-1,-3.301263E-2,7.7817306E-2,2.2783753E-2,1.425E-1,-1.0042759E-1,8.90365E-3],"split_indices":[3,0,18,2,26,0,0,0,30,0,0],"split_type":[0,0,0,0,0,0,0,0,0,0,0],"sum_hessian":[7.4697704E0,1.3129303E0,6.15684E0,2.164866E0,3.991974E0,1.0897759E0,1.07509E0,1.1579024E0,2.8340716E0,1.731891E0,1.1021806E0],"tree_param":{"num_deleted":"0","num_feature":"90","num_nodes":"11","size_leaf_vector":"1"}},{"base_weights":[-7.313791E-4,-4.5974955E-2,5.5906113E-2,7.7946775E-2,-4.8194464E-2,4.1728325E-2,-1.9239666E-1,-7.877456E-2,-1.0361498E-2],"categories":[],"categories_nodes":[],"categories_segments":[],"categories_sizes":[],"default_left":[0,0,0,0,0,0,0,0,0],"id":48,"left_children":[1,-1,3,-1,5,-1,7,-1,-1],"loss_changes":[8.088561E-2,0E0,1.5766758E-1,0E0,1.7179607E-1,0E0,2.9195413E-2,0E0,0E0],"parents":[2147483647,0,0,2,2,4,4,6,6],"right_children":[2,-1,4,-1,6,-1,8,-1,-1],"split_conditions":[7.3E1,-4.5974955E-2,2.00001E0,7.7946775E-2,1.486E-1,4.1728325E-2,4.07E2,-7.877456E-2,-1.0361498E-2],"split_indices":[5,0,4,0,30,0,2,0,0],"split_type":[0,0,0,0,0,0,0,0,0],"sum_hessian":[7.371822E0,1.5343055E0,5.8375163E0,1.4673436E0,4.370173E0,1.9164809E0,2.453692E0,1.2392906E0,1.2144015E0],"tree_param":{"num_deleted":"0","num_feature":"90","num_nodes":"9","size_leaf_vector":"1"}},{"base_weights":[-2.376458E-3,5.9058353E-2,-4.0631592E-2,8.994283E-2,-4.3078065E-2,3.347042E-2,-1.6244456E-1,-6.877861E-2,-2.1269626E-3],"categories":[],"categories_nodes":[],"categories_segments":[],"categories_sizes":[],"default_left":[1,0,0,0,0,0,0,0,0],"id":49,"left_children":[1,3,-1,-1,5,-1,7,-1,-1],"loss_changes":[7.566603E-2,1.692897E-1,0E0,0E0,1.16688326E-1,0E0,3.3882238E-2,0E0,0E0],"parents":[2147483647,0,0,1,1,4,4,6,6],"right_children":[2,4,-1,-1,6,-1,8,-1,-1],"split_conditions":[-2.1E-3,2.00001E0,-4.0631592E-2,8.994283E-2,1.486E-1,3.347042E-2,1E0,-6.877861E-2,-2.1269626E-3],"split_indices":[15,4,0,0,30,0,81,0,0],"split_type":[0,0,0,0,0,0,0,0,0],"sum_hessian":[7.2776947E0,5.359413E0,1.9182814E0,1.0199214E0,4.339492E0,1.9188473E0,2.4206445E0,1.3599865E0,1.060658E0],"tree_param":{"num_deleted":"0","num_feature":"90","num_nodes":"9","size_leaf_vector":"1"}},{"base_weights":[-6.0375492E-5,-1.19581185E-1,6.396255E-2,-6.4110205E-2,1.1961526E-2,1.9302571E-1,-9.961951E-2,7.3422715E-2,8.209746E-3,-6.80772E-2,2.2683114E-2],"categories":[],"categories_nodes":[],"categories_segments":[],"categories_sizes":[],"default_left":[0,0,1,0,0,0,0,0,0,0,0],"id":50,"left_children":[1,3,5,-1,-1,7,9,-1,-1,-1,-1],"loss_changes":[7.053654E-2,5.6773067E-2,1.459714E-1,0E0,0E0,2.4968043E-2,9.093202E-2,0E0,0E0,0E0,0E0],"parents":[2147483647,0,0,1,1,2,2,5,5,6,6],"right_children":[2,4,6,-1,-1,8,10,-1,-1,-1,-1],"split_conditions":[9.3479E4,-1.0251E0,1.6E-3,-6.4110205E-2,1.1961526E-2,8.968E-1,7.32E-2,7.3422715E-2,8.209746E-3,-6.80772E-2,2.2683114E-2],"split_indices":[5,34,30,0,0,18,18,0,0,0,0],"split_type":[0,0,0,0,0,0,0,0,0,0,0],"sum_hessian":[7.2184043E0,2.2151945E0,5.0032096E0,1.179038E0,1.0361565E0,2.696069E0,2.3071408E0,1.6908355E0,1.0052335E0,1.1654408E0,1.1416999E0],"tree_param":{"num_deleted":"0","num_feature":"90","num_nodes":"11","size_leaf_vector":"1"}},{"base_weights":[-2.1156117E-3,5.271713E-2,-4.7172517E-2,-3.903246E-2,1.398465E-1,9.868666E-3,9.0214446E-2,4.4341527E-2,-5.522126E-2],"categories":[],"categories_nodes":[],"categories_segments":[],"categories_sizes":[],"default_left":[0,0,0,0,0,0,0,0,0],"id":51,"left_children":[1,3,-1,-1,5,7,-1,-1,-1],"loss_changes":[7.780847E-2,1.2631528E-1,0E0,0E0,1.032248E-1,1.3001168E-1,0E0,0E0,0E0],"parents":[2147483647,0,0,1,1,4,4,5,5],"right_children":[2,4,-1,-1,6,8,-1,-1,-1],"split_conditions":[1.89E2,9.3479E4,-4.7172517E-2,-3.903246E-2,4.07E2,1.486E-1,9.0214446E-2,4.4341527E-2,-5.522126E-2],"split_indices":[10,5,0,0,2,30,0,0,0],"split_type":[0,0,0,0,0,0,0,0,0],"sum_hessian":[7.1729627E0,5.7874327E0,1.3855298E0,1.7087185E0,4.0787144E0,2.8429906E0,1.2357237E0,1.8003796E0,1.0426109E0],"tree_param":{"num_deleted":"0","num_feature":"90","num_nodes":"9","size_leaf_vector":"1"}},{"base_weights":[-2.0422493E-3,-4.897971E-2,4.8402805E-2,1.2723708E-1,-3.2830663E-2,-3.4972485E-3,7.593982E-2,3.7363116E-2,-3.178427E-2],"categories":[],"categories_nodes":[],"categories_segments":[],"categories_sizes":[],"default_left":[0,0,0,0,0,1,0,0,0],"id":52,"left_children":[1,-1,3,5,-1,7,-1,-1,-1],"loss_changes":[7.337537E-2,0E0,9.982011E-2,8.4267855E-2,0E0,5.87359E-2,0E0,0E0,0E0],"parents":[2147483647,0,0,2,2,3,3,5,5],"right_children":[2,-1,4,6,-1,8,-1,-1,-1],"split_conditions":[5E0,-4.897971E-2,9.89E-1,2.00001E0,-3.2830663E-2,1.268E-1,7.593982E-2,3.7363116E-2,-3.178427E-2],"split_indices":[2,0,18,81,0,31,0,0,0],"split_type":[0,0,0,0,0,0,0,0,0],"sum_hessian":[7.0503454E0,1.1472393E0,5.9031057E0,4.0661135E0,1.8369924E0,2.4716692E0,1.5944443E0,1.0027707E0,1.4688987E0],"tree_param":{"num_deleted":"0","num_feature":"90","num_nodes":"9","size_leaf_vector":"1"}},{"base_weights":[-1.3919506E-3,4.033704E-2,-6.382585E-2,4.3367293E-2,-8.106265E-2,1.300712E-1,-3.314018E-2,8.0969386E-2,-1.0622491E-2],"categories":[],"categories_nodes":[],"categories_segments":[],"categories_sizes":[],"default_left":[0,0,0,0,0,0,0,0,0],"id":53,"left_children":[1,-1,3,5,-1,7,-1,-1,-1],"loss_changes":[7.622086E-2,0E0,1.4759396E-1,7.977885E-2,0E0,9.275295E-2,0E0,0E0,0E0],"parents":[2147483647,0,0,2,2,3,3,5,5],"right_children":[2,-1,4,6,-1,8,-1,-1,-1],"split_conditions":[-4.66E-2,4.033704E-2,1E0,1E0,-8.106265E-2,1.278E-1,-3.314018E-2,8.0969386E-2,-1.0622491E-2],"split_indices":[34,0,10,81,0,30,0,0,0],"split_type":[0,0,0,0,0,0,0,0,0],"sum_hessian":[6.974828E0,1.8329531E0,5.141875E0,3.9040315E0,1.2378432E0,2.595586E0,1.3084453E0,1.0648255E0,1.5307605E0],"tree_param":{"num_deleted":"0","num_feature":"90","num_nodes":"9","size_leaf_vector":"1"}},{"base_weights":[-1.6684803E-3,-4.555071E-2,5.3062443E-2,1.3401966E-1,-2.9987887E-2,1.7285271E-3,7.4583046E-2,-2.4836605E-2,2.4782151E-2],"categories":[],"categories_nodes":[],"categories_segments":[],"categories_sizes":[],"default_left":[0,0,0,0,0,1,0,0,0],"id":54,"left_children":[1,-1,3,5,-1,7,-1,-1,-1],"loss_changes":[7.3199846E-2,0E0,9.4539255E-2,7.098412E-2,0E0,2.8669016E-2,0E0,0E0,0E0],"parents":[2147483647,0,0,2,2,3,3,5,5],"right_children":[2,-1,4,6,-1,8,-1,-1,-1],"split_conditions":[1.9E1,-4.555071E-2,9.89E-1,2.00001E0,-2.9987887E-2,1.425E-1,7.4583046E-2,-2.4836605E-2,2.4782151E-2],"split_indices":[2,0,18,81,0,30,0,0,0],"split_type":[0,0,0,0,0,0,0,0,0],"sum_hessian":[6.9261155E0,1.3761371E0,5.5499783E0,3.710891E0,1.8390875E0,2.1935692E0,1.5173218E0,1.0611078E0,1.1324613E0],"tree_param":{"num_deleted":"0","num_feature":"90","num_nodes":"9","size_leaf_vector":"1"}},{"base_weights":[-1.2228497E-3,4.3248594E-2,-4.943808E-2,-5.2025262E-2,3.249575E-2,6.4812295E-2,-1.1747897E-1,-7.189051E-2,2.3089549E-2],"categories":[],"categories_nodes":[],"categories_segments":[],"categories_sizes":[],"default_left":[0,0,0,0,1,0,0,0,0],"id":55,"left_children":[1,-1,3,-1,5,-1,7,-1,-1],"loss_changes":[6.2218104E-2,0E0,7.31515E-2,0E0,1.5872262E-1,0E0,9.714907E-2,0E0,0E0],"parents":[2147483647,0,0,2,2,4,4,6,6],"right_children":[2,-1,4,-1,6,-1,8,-1,-1],"split_conditions":[1E3,4.3248594E-2,5E3,-5.2025262E-2,1.2E-3,6.4812295E-2,7.4E-2,-7.189051E-2,2.3089549E-2],"split_indices":[3,0,3,0,30,0,18,0,0],"split_type":[0,0,0,0,0,0,0,0,0],"sum_hessian":[6.8591843E0,1.2126567E0,5.6465273E0,1.8024961E0,3.8440313E0,1.5304669E0,2.3135643E0,1.2781676E0,1.0353967E0],"tree_param":{"num_deleted":"0","num_feature":"90","num_nodes":"9","size_leaf_vector":"1"}},{"base_weights":[-2.3999706E-5,3.7463073E-2,-5.8127265E-2,4.267406E-2,-7.664912E-2,1.2825917E-1,-3.2848798E-2,8.0310225E-2,-1.1519609E-2],"categories":[],"categories_nodes":[],"categories_segments":[],"categories_sizes":[],"default_left":[0,0,0,0,0,0,0,0,0],"id":56,"left_children":[1,-1,3,5,-1,7,-1,-1,-1],"loss_changes":[6.3936286E-2,0E0,1.3052548E-1,7.703664E-2,0E0,9.292357E-2,0E0,0E0,0E0],"parents":[2147483647,0,0,2,2,3,3,5,5],"right_children":[2,-1,4,6,-1,8,-1,-1,-1],"split_conditions":[-4.66E-2,3.7463073E-2,1E0,1E0,-7.664912E-2,1.278E-1,-3.2848798E-2,8.0310225E-2,-1.1519609E-2],"split_indices":[34,0,10,81,0,30,0,0,0],"split_type":[0,0,0,0,0,0,0,0,0],"sum_hessian":[6.8098884E0,1.7972437E0,5.012645E0,3.8368585E0,1.1757861E0,2.5562677E0,1.2805908E0,1.0616788E0,1.494589E0],"tree_param":{"num_deleted":"0","num_feature":"90","num_nodes":"9","size_leaf_vector":"1"}},{"base_weights":[-6.381136E-4,-4.166811E-2,4.981501E-2,1.2837714E-1,-2.8374502E-2,7.626376E-2,1.270143E-2,-5.9508782E-2,5.983052E-2],"categories":[],"categories_nodes":[],"categories_segments":[],"categories_sizes":[],"default_left":[0,0,0,0,0,0,0,0,0],"id":57,"left_children":[1,-1,3,5,-1,-1,7,-1,-1],"loss_changes":[6.109294E-2,0E0,8.5039355E-2,6.352447E-2,0E0,0E0,1.7521985E-1,0E0,0E0],"parents":[2147483647,0,0,2,2,3,3,6,6],"right_children":[2,-1,4,6,-1,-1,8,-1,-1],"split_conditions":[1.9E1,-4.166811E-2,9.89E-1,2.71E2,-2.8374502E-2,7.626376E-2,4.07E2,-5.9508782E-2,5.983052E-2],"split_indices":[2,0,18,2,0,0,2,0,0],"split_type":[0,0,0,0,0,0,0,0,0],"sum_hessian":[6.7664E0,1.3404015E0,5.4259987E0,3.5859346E0,1.8400638E0,1.1439172E0,2.4420176E0,1.117095E0,1.3249224E0],"tree_param":{"num_deleted":"0","num_feature":"90","num_nodes":"9","size_leaf_vector":"1"}},{"base_weights":[5.106209E-4,-4.3147083E-2,4.3760587E-2,3.756152E-2,-7.251736E-2,-3.527076E-2,3.511727E-2,3.70261E-2,-5.547395E-2],"categories":[],"categories_nodes":[],"categories_segments":[],"categories_sizes":[],"default_left":[1,1,0,0,0,0,0,0,0],"id":58,"left_children":[1,3,-1,5,-1,7,-1,-1,-1],"loss_changes":[5.5023227E-2,1.16089575E-1,0E0,3.6626738E-2,0E0,1.10630505E-1,0E0,0E0,0E0],"parents":[2147483647,0,0,1,1,3,3,5,5],"right_children":[2,4,-1,6,-1,8,-1,-1,-1],"split_conditions":[9.3442E4,-1.22E-2,4.3760587E-2,3.71E2,-7.251736E-2,1E0,3.511727E-2,3.70261E-2,-5.547395E-2],"split_indices":[32,15,0,2,0,81,0,0,0],"split_type":[0,0,0,0,0,0,0,0,0],"sum_hessian":[6.6787653E0,5.676898E0,1.0018673E0,4.6129045E0,1.0639937E0,2.6976788E0,1.9152254E0,1.3942995E0,1.3033794E0],"tree_param":{"num_deleted":"0","num_feature":"90","num_nodes":"9","size_leaf_vector":"1"}},{"base_weights":[-1.3654766E-3,4.2504035E-2,-4.9301162E-2,2.7629523E-2,-1.1289409E-1,2.4426578E-2,-7.386302E-2],"categories":[],"categories_nodes":[],"categories_segments":[],"categories_sizes":[],"default_left":[0,0,0,0,0,0,0],"id":59,"left_children":[1,-1,3,-1,5,-1,-1],"loss_changes":[5.918193E-2,0E0,6.833681E-2,0E0,1.468235E-1,0E0,0E0],"parents":[2147483647,0,0,2,2,4,4],"right_children":[2,-1,4,-1,6,-1,-1],"split_conditions":[1E3,4.2504035E-2,4.4E-1,2.7629523E-2,1.486E-1,2.4426578E-2,-7.386302E-2],"split_indices":[3,0,26,0,30,0,0],"split_type":[0,0,0,0,0,0,0],"sum_hessian":[6.612225E0,1.1687906E0,5.4434347E0,1.5496103E0,3.8938243E0,1.7428185E0,2.151006E0],"tree_param":{"num_deleted":"0","num_feature":"90","num_nodes":"7","size_leaf_vector":"1"}},{"base_weights":[1.6984423E-3,-3.9739978E-2,5.1155727E-2,-6.1865117E-2,1.5572852E-1,2.2983775E-2,-5.187316E-2,7.781739E-2,-1.2689206E-2],"categories":[],"categories_nodes":[],"categories_segments":[],"categories_sizes":[],"default_left":[0,0,0,0,0,0,0,0,0],"id":60,"left_children":[1,-1,3,5,7,-1,-1,-1,-1],"loss_changes":[5.708681E-2,0E0,8.363597E-2,7.052441E-2,8.356884E-2,0E0,0E0,0E0,0E0],"parents":[2147483647,0,0,2,2,3,3,4,4],"right_children":[2,-1,4,6,8,-1,-1,-1,-1],"split_conditions":[1.9E1,-3.9739978E-2,2.00001E0,1.179E-1,1E0,2.2983775E-2,-5.187316E-2,7.781739E-2,-1.2689206E-2],"split_indices":[2,0,81,18,18,0,0,0,0],"split_type":[0,0,0,0,0,0,0,0,0],"sum_hessian":[6.5820746E0,1.3207669E0,5.261308E0,2.7247918E0,2.5365162E0,1.3506101E0,1.3741816E0,1.4615414E0,1.0749748E0],"tree_param":{"num_deleted":"0","num_feature":"90","num_nodes":"9","size_leaf_vector":"1"}},{"base_weights":[8.5628557E-4,-3.7248682E-2,4.990926E-2,7.811752E-2,-5.4722562E-2,2.7234064E-2,-1.6568933E-1,-7.285026E-2,-3.3336447E-3],"categories":[],"categories_nodes":[],"categories_segments":[],"categories_sizes":[],"default_left":[0,0,0,0,0,0,0,0,0],"id":61,"left_children":[1,-1,3,-1,5,-1,7,-1,-1],"loss_changes":[5.223538E-2,0E0,1.4870107E-1,0E0,9.422475E-2,0E0,3.47011E-2,0E0,0E0],"parents":[2147483647,0,0,2,2,4,4,6,6],"right_children":[2,-1,4,-1,6,-1,8,-1,-1],"split_conditions":[7.9E1,-3.7248682E-2,2.00001E0,7.811752E-2,1.486E-1,2.7234064E-2,4.07E2,-7.285026E-2,-3.3336447E-3],"split_indices":[5,0,4,0,30,0,2,0,0],"split_type":[0,0,0,0,0,0,0,0,0],"sum_hessian":[6.5072637E0,1.4022475E0,5.105016E0,1.2007939E0,3.9042225E0,1.7679507E0,2.1362717E0,1.0441902E0,1.0920815E0],"tree_param":{"num_deleted":"0","num_feature":"90","num_nodes":"9","size_leaf_vector":"1"}},{"base_weights":[-4.3357458E-4,4.46014E-2,-3.9644834E-2,-3.6415603E-2,1.249764E-1,-1.2988666E-3,8.324841E-2,5.4222297E-2,-4.566186E-2],"categories":[],"categories_nodes":[],"categories_segments":[],"categories_sizes":[],"default_left":[0,0,0,0,0,1,0,0,0],"id":62,"left_children":[1,3,-1,-1,5,7,-1,-1,-1],"loss_changes":[4.997931E-2,9.903339E-2,0E0,0E0,9.141713E-2,1.2590691E-1,0E0,0E0,0E0],"parents":[2147483647,0,0,1,1,4,4,5,5],"right_children":[2,4,-1,-1,6,8,-1,-1,-1],"split_conditions":[1.89E2,9.3479E4,-3.9644834E-2,-3.6415603E-2,4.07E2,1.6E-3,8.324841E-2,5.4222297E-2,-4.566186E-2],"split_indices":[10,5,0,0,2,30,0,0,0],"split_type":[0,0,0,0,0,0,0,0,0],"sum_hessian":[6.431995E0,5.28603E0,1.1459649E0,1.5580922E0,3.727938E0,2.581832E0,1.146106E0,1.0806029E0,1.5012289E0],"tree_param":{"num_deleted":"0","num_feature":"90","num_nodes":"9","size_leaf_vector":"1"}},{"base_weights":[2.1116987E-3,3.3930678E-2,-5.0350927E-2,3.5177834E-2,-6.575265E-2,1.12849765E-1,-3.126997E-2,6.924703E-2,-1.0014312E-2],"categories":[],"categories_nodes":[],"categories_segments":[],"categories_sizes":[],"default_left":[0,0,0,0,0,0,0,0,0],"id":63,"left_children":[1,-1,3,5,-1,7,-1,-1,-1],"loss_changes":[4.8454538E-2,0E0,8.970265E-2,6.1905246E-2,0E0,6.729118E-2,0E0,0E0,0E0],"parents":[2147483647,0,0,2,2,3,3,5,5],"right_children":[2,-1,4,6,-1,8,-1,-1,-1],"split_conditions":[-4.66E-2,3.3930678E-2,1E0,1E0,-6.575265E-2,1.278E-1,-3.126997E-2,6.924703E-2,-1.0014312E-2],"split_indices":[34,0,10,81,0,30,0,0,0],"split_type":[0,0,0,0,0,0,0,0,0],"sum_hessian":[6.3434296E0,1.6650232E0,4.6784062E0,3.6306841E0,1.0477222E0,2.4539871E0,1.1766971E0,1.0380442E0,1.4159429E0],"tree_param":{"num_deleted":"0","num_feature":"90","num_nodes":"9","size_leaf_vector":"1"}},{"base_weights":[8.157154E-4,-4.076659E-2,5.2706424E-2,1.3694137E-1,-2.9885327E-2,7.171654E-2,3.0690344E-2,-5.2582145E-2,6.243611E-2],"categories":[],"categories_nodes":[],"categories_segments":[],"categories_sizes":[],"default_left":[0,0,0,0,0,0,0,0,0],"id":64,"left_children":[1,-1,3,5,-1,-1,7,-1,-1],"loss_changes":[5.9042864E-2,0E0,9.0908535E-2,3.9302766E-2,0E0,0E0,1.5539142E-1,0E0,0E0],"parents":[2147483647,0,0,2,2,3,3,6,6],"right_children":[2,-1,4,6,-1,-1,8,-1,-1],"split_conditions":[1.9E1,-4.076659E-2,9.89E-1,2.71E2,-2.9885327E-2,7.171654E-2,4.07E2,-5.2582145E-2,6.243611E-2],"split_indices":[2,0,18,2,0,0,2,0,0],"split_type":[0,0,0,0,0,0,0,0,0],"sum_hessian":[6.31364E0,1.2917696E0,5.0218706E0,3.2986894E0,1.7231811E0,1.0447307E0,2.2539587E0,1.048728E0,1.2052308E0],"tree_param":{"num_deleted":"0","num_feature":"90","num_nodes":"9","size_leaf_vector":"1"}},{"base_weights":[2.205751E-3,-3.7914485E-2,4.417592E-2,1.10770226E-1,-2.432342E-2,1.7401226E-1,-9.431987E-3,9.09222E-3,7.377543E-2],"categories":[],"categories_nodes":[],"categories_segments":[],"categories_sizes":[],"default_left":[0,0,0,1,0,0,0,0,0],"id":65,"left_children":[1,-1,3,5,-1,7,-1,-1,-1],"loss_changes":[4.4625543E-2,0E0,6.065587E-2,4.564826E-2,0E0,2.6080288E-2,0E0,0E0,0E0],"parents":[2147483647,0,0,2,2,3,3,5,5],"right_children":[2,-1,4,6,-1,8,-1,-1,-1],"split_conditions":[5E0,-3.7914485E-2,9.89E-1,1.551E-1,-2.432342E-2,3.71E2,-9.431987E-3,9.09222E-3,7.377543E-2],"split_indices":[2,0,18,30,0,2,0,0,0],"split_type":[0,0,0,0,0,0,0,0,0],"sum_hessian":[6.2343383E0,1.0392082E0,5.1951303E0,3.4672945E0,1.7278357E0,2.2452059E0,1.2220886E0,1.2228367E0,1.0223691E0],"tree_param":{"num_deleted":"0","num_feature":"90","num_nodes":"9","size_leaf_vector":"1"}},{"base_weights":[3.1897693E-3,4.6578478E-2,-3.7236754E-2,-3.252861E-2,1.22207746E-1,-7.765264E-3,7.084765E-2,5.157178E-2,-5.4708507E-2],"categories":[],"categories_nodes":[],"categories_segments":[],"categories_sizes":[],"default_left":[0,0,0,0,0,1,0,0,0],"id":66,"left_children":[1,3,-1,-1,5,7,-1,-1,-1],"loss_changes":[4.548777E-2,8.462268E-2,0E0,0E0,6.9397844E-2,1.285734E-1,0E0,0E0,0E0],"parents":[2147483647,0,0,1,1,4,4,5,5],"right_children":[2,4,-1,-1,6,8,-1,-1,-1],"split_conditions":[1.89E2,9.3479E4,-3.7236754E-2,-3.252861E-2,3.71E2,1.6E-3,7.084765E-2,5.157178E-2,-5.4708507E-2],"split_indices":[10,5,0,0,2,30,0,0,0],"split_type":[0,0,0,0,0,0,0,0,0],"sum_hessian":[6.188078E0,5.088149E0,1.0999286E0,1.5262706E0,3.5618787E0,2.0992832E0,1.4625953E0,1.0422003E0,1.057083E0],"tree_param":{"num_deleted":"0","num_feature":"90","num_nodes":"9","size_leaf_vector":"1"}},{"base_weights":[2.134501E-3,3.6334153E-2,-5.481332E-2,2.580658E-2,-6.2370285E-2,1.0506884E-1,-3.3219635E-2,7.075948E-2,-1.6086642E-2],"categories":[],"categories_nodes":[],"categories_segments":[],"categories_sizes":[],"default_left":[0,0,0,0,0,0,0,0,0],"id":67,"left_children":[1,-1,3,5,-1,7,-1,-1,-1],"loss_changes":[5.4819617E-2,0E0,7.321547E-2,6.0234368E-2,0E0,8.227226E-2,0E0,0E0,0E0],"parents":[2147483647,0,0,2,2,3,3,5,5],"right_children":[2,-1,4,6,-1,8,-1,-1,-1],"split_conditions":[-1.965E-1,3.6334153E-2,1E0,1E0,-6.2370285E-2,1.278E-1,-3.3219635E-2,7.075948E-2,-1.6086642E-2],"split_indices":[34,0,10,81,0,30,0,0,0],"split_type":[0,0,0,0,0,0,0,0,0],"sum_hessian":[6.1109366E0,1.6133866E0,4.49755E0,3.490689E0,1.0068611E0,2.3544104E0,1.1362787E0,1.0240518E0,1.3303586E0],"tree_param":{"num_deleted":"0","num_feature":"90","num_nodes":"9","size_leaf_vector":"1"}},{"base_weights":[7.3766324E-4,3.7013665E-2,-4.192817E-2,-1.0084934E-1,2.6872989E-2,-6.6061385E-2,-5.028361E-3,2.6394743E-2,-2.7063878E-2],"categories":[],"categories_nodes":[],"categories_segments":[],"categories_sizes":[],"default_left":[0,0,1,0,0,0,0,0,0],"id":68,"left_children":[1,-1,3,5,-1,-1,7,-1,-1],"loss_changes":[4.223581E-2,0E0,5.5534184E-2,5.167077E-2,0E0,0E0,3.632656E-2,0E0,0E0],"parents":[2147483647,0,0,2,2,3,3,6,6],"right_children":[2,-1,4,6,-1,-1,8,-1,-1],"split_conditions":[1E3,3.7013665E-2,1.425E-1,6E-3,2.6872989E-2,-6.6061385E-2,1.278E-1,2.6394743E-2,-2.7063878E-2],"split_indices":[3,0,30,1,0,0,30,0,0],"split_type":[0,0,0,0,0,0,0,0,0],"sum_hessian":[6.083063E0,1.0817803E0,5.001283E0,3.614781E0,1.3865021E0,1.0316576E0,2.5831232E0,1.2191354E0,1.3639878E0],"tree_param":{"num_deleted":"0","num_feature":"90","num_nodes":"9","size_leaf_vector":"1"}},{"base_weights":[3.7778227E-5,-5.7727672E-2,3.29472E-2,-1.1923751E-1,1.28860045E-2,1.7694354E-2,-7.0099354E-2],"categories":[],"categories_nodes":[],"categories_segments":[],"categories_sizes":[],"default_left":[1,0,0,1,0,0,0],"id":69,"left_children":[1,3,-1,5,-1,-1,-1],"loss_changes":[5.1088136E-2,3.781283E-2,0E0,8.600791E-2,0E0,0E0,0E0],"parents":[2147483647,0,0,1,1,3,3],"right_children":[2,4,-1,6,-1,-1,-1],"split_conditions":[1.49908E1,3.71E2,3.29472E-2,1.2E-3,1.28860045E-2,1.7694354E-2,-7.0099354E-2],"split_indices":[9,2,0,30,0,0,0],"split_type":[0,0,0,0,0,0,0],"sum_hessian":[6.056024E0,4.2788386E0,1.7771854E0,2.5417051E0,1.7371334E0,1.1832927E0,1.3584124E0],"tree_param":{"num_deleted":"0","num_feature":"90","num_nodes":"7","size_leaf_vector":"1"}},{"base_weights":[-1.0250915E-3,7.833728E-2,-5.9541855E-2,-2.8553138E-2,6.9267936E-2,2.861868E-2,-5.4420162E-2],"categories":[],"categories_nodes":[],"categories_segments":[],"categories_sizes":[],"default_left":[0,0,0,0,0,0,0],"id":70,"left_children":[1,3,5,-1,-1,-1,-1],"loss_changes":[3.7268247E-2,1.12278454E-1,1.0432823E-1,0E0,0E0,0E0,0E0],"parents":[2147483647,0,0,1,1,2,2],"right_children":[2,4,6,-1,-1,-1,-1],"split_conditions":[2.00001E0,7.9E1,1.486E-1,-2.8553138E-2,6.9267936E-2,2.861868E-2,-5.4420162E-2],"split_indices":[4,5,30,0,0,0,0],"split_type":[0,0,0,0,0,0,0],"sum_hessian":[6.020606E0,2.41143E0,3.6091764E0,1.3041863E0,1.1072434E0,1.6845342E0,1.9246421E0],"tree_param":{"num_deleted":"0","num_feature":"90","num_nodes":"7","size_leaf_vector":"1"}},{"base_weights":[1.5198146E-3,-4.146127E-2,4.8406467E-2,1.2881123E-1,-2.9766336E-2,6.0321745E-2,1.735375E-3],"categories":[],"categories_nodes":[],"categories_segments":[],"categories_sizes":[],"default_left":[0,0,0,1,0,0,0],"id":71,"left_children":[1,-1,3,5,-1,-1,-1],"loss_changes":[5.2382607E-2,0E0,8.356E-2,3.7023902E-2,0E0,0E0,0E0],"parents":[2147483647,0,0,2,2,3,3],"right_children":[2,-1,4,6,-1,-1,-1],"split_conditions":[5E0,-4.146127E-2,9.89E-1,1.268E-1,-2.9766336E-2,6.0321745E-2,1.735375E-3],"split_indices":[2,0,18,31,0,0,0],"split_type":[0,0,0,0,0,0,0],"sum_hessian":[5.9747033E0,1.011819E0,4.9628844E0,3.2954755E0,1.6674091E0,1.676425E0,1.6190504E0],"tree_param":{"num_deleted":"0","num_feature":"90","num_nodes":"7","size_leaf_vector":"1"}},{"base_weights":[-2.0378041E-4,2.8923573E-2,-4.644974E-2,-1.1121084E-1,2.1665597E-2,1.1959522E-2,-7.711692E-2],"categories":[],"categories_nodes":[],"categories_segments":[],"categories_sizes":[],"default_left":[0,0,0,0,0,0,0],"id":72,"left_children":[1,-1,3,5,-1,-1,-1],"loss_changes":[3.5439674E-2,0E0,4.9232595E-2,9.534373E-2,0E0,0E0,0E0],"parents":[2147483647,0,0,2,2,3,3],"right_children":[2,-1,4,6,-1,-1,-1],"split_conditions":[-1.965E-1,2.8923573E-2,4.07E2,1.486E-1,2.1665597E-2,1.1959522E-2,-7.711692E-2],"split_indices":[34,0,2,30,0,0,0],"split_type":[0,0,0,0,0,0,0],"sum_hessian":[5.9294486E0,1.5682801E0,4.3611684E0,2.862083E0,1.4990857E0,1.7627642E0,1.0993187E0],"tree_param":{"num_deleted":"0","num_feature":"90","num_nodes":"7","size_leaf_vector":"1"}},{"base_weights":[-2.4246096E-3,3.50136E-2,-4.3937527E-2,-1.0522589E-1,2.8212544E-2,-6.328242E-2,-4.7055475E-4,4.1850932E-2,-4.0557336E-2],"categories":[],"categories_nodes":[],"categories_segments":[],"categories_sizes":[],"default_left":[0,0,1,0,0,0,0,0,0],"id":73,"left_children":[1,-1,3,5,-1,-1,7,-1,-1],"loss_changes":[3.917459E-2,0E0,5.9211344E-2,4.984538E-2,0E0,0E0,8.04761E-2,0E0,0E0],"parents":[2147483647,0,0,2,2,3,3,6,6],"right_children":[2,-1,4,6,-1,-1,8,-1,-1],"split_conditions":[1E3,3.50136E-2,1.425E-1,5E3,2.8212544E-2,-6.328242E-2,6.86E-2,4.1850932E-2,-4.0557336E-2],"split_indices":[3,0,30,3,0,0,18,0,0],"split_type":[0,0,0,0,0,0,0,0,0],"sum_hessian":[5.8840604E0,1.0523868E0,4.8316736E0,3.5099745E0,1.321699E0,1.2424643E0,2.2675102E0,1.0946634E0,1.1728468E0],"tree_param":{"num_deleted":"0","num_feature":"90","num_nodes":"9","size_leaf_vector":"1"}},{"base_weights":[-1.575518E-3,-3.7467692E-2,4.702265E-2,-7.111431E-2,1.5490772E-1,1.8166669E-2,-5.0084475E-2,7.485287E-2,-8.788385E-3],"categories":[],"categories_nodes":[],"categories_segments":[],"categories_sizes":[],"default_left":[0,0,0,0,0,0,0,0,0],"id":74,"left_children":[1,-1,3,5,7,-1,-1,-1,-1],"loss_changes":[4.7037907E-2,0E0,8.3072886E-2,5.280997E-2,6.428612E-2,0E0,0E0,0E0,0E0],"parents":[2147483647,0,0,2,2,3,3,4,4],"right_children":[2,-1,4,6,8,-1,-1,-1,-1],"split_conditions":[1.9E1,-3.7467692E-2,2.00001E0,1.179E-1,9.94E-1,1.8166669E-2,-5.0084475E-2,7.485287E-2,-8.788385E-3],"split_indices":[2,0,81,18,18,0,0,0,0],"split_type":[0,0,0,0,0,0,0,0,0],"sum_hessian":[5.8689046E0,1.2152746E0,4.6536303E0,2.3839622E0,2.2696679E0,1.1592898E0,1.2246724E0,1.2653E0,1.0043678E0],"tree_param":{"num_deleted":"0","num_feature":"90","num_nodes":"9","size_leaf_vector":"1"}},{"base_weights":[-1.489136E-3,-6.304362E-2,7.0004225E-2,9.120096E-3,-4.493376E-2,-2.3845462E-2,5.3044852E-2],"categories":[],"categories_nodes":[],"categories_segments":[],"categories_sizes":[],"default_left":[0,0,0,0,0,0,0],"id":75,"left_children":[1,3,5,-1,-1,-1,-1],"loss_changes":[3.4369923E-2,3.84643E-2,7.190629E-2,0E0,0E0,0E0,0E0],"parents":[2147483647,0,0,1,1,2,2],"right_children":[2,4,6,-1,-1,-1,-1],"split_conditions":[4.07E2,1E0,9.3479E4,9.120096E-3,-4.493376E-2,-2.3845462E-2,5.3044852E-2],"split_indices":[2,81,5,0,0,0,0],"split_type":[0,0,0,0,0,0,0],"sum_hessian":[5.8071795E0,3.1840014E0,2.6231778E0,1.8453898E0,1.3386115E0,1.1998149E0,1.423363E0],"tree_param":{"num_deleted":"0","num_feature":"90","num_nodes":"7","size_leaf_vector":"1"}},{"base_weights":[-1.9388803E-3,2.9856768E-2,-5.075365E-2,5.5264276E-2,-4.4393767E-2,-2.5547966E-2,4.7587026E-2],"categories":[],"categories_nodes":[],"categories_segments":[],"categories_sizes":[],"default_left":[0,0,1,0,0,0,0],"id":76,"left_children":[1,-1,3,5,-1,-1,-1],"loss_changes":[3.858004E-2,0E0,6.2117025E-2,6.040866E-2,0E0,0E0,0E0],"parents":[2147483647,0,0,2,2,3,3],"right_children":[2,-1,4,6,-1,-1,-1],"split_conditions":[-4.66E-2,2.9856768E-2,1.2E-3,5E3,-4.4393767E-2,-2.5547966E-2,4.7587026E-2],"split_indices":[34,0,30,3,0,0,0],"split_type":[0,0,0,0,0,0,0],"sum_hessian":[5.7696643E0,1.5367506E0,4.232914E0,2.2313569E0,2.001557E0,1.0207031E0,1.2106537E0],"tree_param":{"num_deleted":"0","num_feature":"90","num_nodes":"7","size_leaf_vector":"1"}},{"base_weights":[-2.748814E-4,4.5124024E-2,-2.8285543E-2,1.0520589E-1,-1.2968223E-2,4.6152163E-2,-1.7434553E-3],"categories":[],"categories_nodes":[],"categories_segments":[],"categories_sizes":[],"default_left":[1,1,0,0,0,0,0],"id":77,"left_children":[1,3,-1,5,-1,-1,-1],"loss_changes":[3.306136E-2,3.2298952E-2,0E0,1.9267783E-2,0E0,0E0,0E0],"parents":[2147483647,0,0,1,1,3,3],"right_children":[2,4,-1,6,-1,-1,-1],"split_conditions":[1E-4,1.6E-3,-2.8285543E-2,8.968E-1,-1.2968223E-2,4.6152163E-2,-1.7434553E-3],"split_indices":[27,30,0,18,0,0,0],"split_type":[0,0,0,0,0,0,0],"sum_hessian":[5.7495522E0,4.2278647E0,1.5216873E0,2.4029882E0,1.8248769E0,1.4027404E0,1.0002477E0],"tree_param":{"num_deleted":"0","num_feature":"90","num_nodes":"7","size_leaf_vector":"1"}},{"base_weights":[2.545473E-4,-3.200702E-2,4.2052623E-2,-6.434704E-2,1.4039616E-1,2.1603227E-2,-5.0291773E-2,6.168369E-2,3.9453772E-4],"categories":[],"categories_nodes":[],"categories_segments":[],"categories_sizes":[],"default_left":[0,0,0,0,0,0,0,0,0],"id":78,"left_children":[1,-1,3,5,7,-1,-1,-1,-1],"loss_changes":[3.464941E-2,0E0,6.730467E-2,5.9404436E-2,2.88295E-2,0E0,0E0,0E0,0E0],"parents":[2147483647,0,0,2,2,3,3,4,4],"right_children":[2,-1,4,6,8,-1,-1,-1,-1],"split_conditions":[1.9E1,-3.200702E-2,2.00001E0,1.179E-1,9.92E-1,2.1603227E-2,-5.0291773E-2,6.168369E-2,3.9453772E-4],"split_indices":[2,0,81,18,18,0,0,0,0],"split_type":[0,0,0,0,0,0,0,0,0],"sum_hessian":[5.7477136E0,1.1788908E0,4.568823E0,2.3605702E0,2.2082527E0,1.1479654E0,1.2126046E0,1.1776708E0,1.030582E0],"tree_param":{"num_deleted":"0","num_feature":"90","num_nodes":"9","size_leaf_vector":"1"}},{"base_weights":[4.3903379E-4,7.8829855E-2,-5.7860956E-2,-2.7765013E-2,6.547638E-2,2.8035445E-2,-5.3119954E-2],"categories":[],"categories_nodes":[],"categories_segments":[],"categories_sizes":[],"default_left":[0,0,0,0,0,0,0],"id":79,"left_children":[1,3,5,-1,-1,-1,-1],"loss_changes":[3.5183657E-2,9.8600626E-2,9.626051E-2,0E0,0E0,0E0,0E0],"parents":[2147483647,0,0,1,1,2,2],"right_children":[2,4,6,-1,-1,-1,-1],"split_conditions":[2.00001E0,9.3442E4,1.486E-1,-2.7765013E-2,6.547638E-2,2.8035445E-2,-5.3119954E-2],"split_indices":[4,32,30,0,0,0,0],"split_type":[0,0,0,0,0,0,0],"sum_hessian":[5.7004933E0,2.281125E0,3.419368E0,1.1741136E0,1.1070114E0,1.6019701E0,1.8173981E0],"tree_param":{"num_deleted":"0","num_feature":"90","num_nodes":"7","size_leaf_vector":"1"}},{"base_weights":[2.2944172E-3,-3.036754E-2,4.2769104E-2,4.7515728E-2,-4.271162E-2,2.294437E-2,-5.2896544E-2],"categories":[],"categories_nodes":[],"categories_segments":[],"categories_sizes":[],"default_left":[0,0,0,0,0,0,0],"id":80,"left_children":[1,-1,3,-1,5,-1,-1],"loss_changes":[3.22299E-2,0E0,6.1024696E-2,0E0,7.6296434E-2,0E0,0E0],"parents":[2147483647,0,0,2,2,4,4],"right_children":[2,-1,4,-1,6,-1,-1],"split_conditions":[1.9E1,-3.036754E-2,4.4E-1,4.7515728E-2,5.766E-1,2.294437E-2,-5.2896544E-2],"split_indices":[2,0,26,0,18,0,0],"split_type":[0,0,0,0,0,0,0],"sum_hessian":[5.6589775E0,1.1687615E0,4.4902163E0,1.5461262E0,2.9440901E0,1.7819777E0,1.1621124E0],"tree_param":{"num_deleted":"0","num_feature":"90","num_nodes":"7","size_leaf_vector":"1"}},{"base_weights":[-3.0046864E-4,-2.9557811E-2,5.3840782E-2,-5.1525276E-2,4.693154E-2,2.7469993E-2,-5.3359315E-2],"categories":[],"categories_nodes":[],"categories_segments":[],"categories_sizes":[],"default_left":[0,0,0,0,0,0,0],"id":81,"left_children":[1,-1,3,5,-1,-1,-1],"loss_changes":[4.053231E-2,0E0,6.1214782E-2,7.3738836E-2,0E0,0E0,0E0],"parents":[2147483647,0,0,2,2,3,3],"right_children":[2,-1,4,6,-1,-1,-1],"split_conditions":[6E-3,-2.9557811E-2,3.71E2,1.278E-1,4.693154E-2,2.7469993E-2,-5.3359315E-2],"split_indices":[1,0,2,30,0,0,0],"split_type":[0,0,0,0,0,0,0],"sum_hessian":[5.62415E0,1.7071548E0,3.9169948E0,2.1780095E0,1.7389855E0,1.1503509E0,1.0276585E0],"tree_param":{"num_deleted":"0","num_feature":"90","num_nodes":"7","size_leaf_vector":"1"}},{"base_weights":[-1.4918648E-3,2.6946474E-2,-4.5514032E-2,4.387443E-2,-3.8117964E-2,-2.389953E-2,4.1247588E-2],"categories":[],"categories_nodes":[],"categories_segments":[],"categories_sizes":[],"default_left":[0,0,1,0,0,0,0],"id":82,"left_children":[1,-1,3,5,-1,-1,-1],"loss_changes":[3.0551605E-2,0E0,4.2790264E-2,4.7719594E-2,0E0,0E0,0E0],"parents":[2147483647,0,0,2,2,3,3],"right_children":[2,-1,4,6,-1,-1,-1],"split_conditions":[-4.66E-2,2.6946474E-2,1.2E-3,5E3,-3.8117964E-2,-2.389953E-2,4.1247588E-2],"split_indices":[34,0,30,3,0,0,0],"split_type":[0,0,0,0,0,0,0],"sum_hessian":[5.5832534E0,1.4777154E0,4.105538E0,2.1789715E0,1.9265665E0,1.0036163E0,1.1753552E0],"tree_param":{"num_deleted":"0","num_feature":"90","num_nodes":"7","size_leaf_vector":"1"}},{"base_weights":[-1.2168401E-4,-2.7771205E-2,5.0978947E-2,3.6653187E-2,-1.3654285E-2],"categories":[],"categories_nodes":[],"categories_segments":[],"categories_sizes":[],"default_left":[0,0,1,0,0],"id":83,"left_children":[1,-1,3,-1,-1],"loss_changes":[3.5754535E-2,0E0,3.9057843E-2,0E0,0E0],"parents":[2147483647,0,0,2,2],"right_children":[2,-1,4,-1,-1],"split_conditions":[6E-3,-2.7771205E-2,1.6E-3,3.6653187E-2,-1.3654285E-2],"split_indices":[1,0,30,0,0],"split_type":[0,0,0,0,0],"sum_hessian":[5.5694437E0,1.6937143E0,3.8757296E0,2.0770133E0,1.7987162E0],"tree_param":{"num_deleted":"0","num_feature":"90","num_nodes":"5","size_leaf_vector":"1"}},{"base_weights":[-8.0386794E-4,-4.2981952E-2,2.8085068E-2,-9.28241E-2,2.3008123E-2,1.0444285E-2,-5.6941874E-2],"categories":[],"categories_nodes":[],"categories_segments":[],"categories_sizes":[],"default_left":[1,1,0,0,0,0,0],"id":84,"left_children":[1,3,-1,5,-1,-1,-1],"loss_changes":[3.0137958E-2,3.8243137E-2,0E0,5.7807606E-2,0E0,0E0,0E0],"parents":[2147483647,0,0,1,1,3,3],"right_children":[2,4,-1,6,-1,-1,-1],"split_conditions":[1.384E-1,1.1713447E4,2.8085068E-2,2.95E2,2.3008123E-2,1.0444285E-2,-5.6941874E-2],"split_indices":[30,9,0,2,0,0,0],"split_type":[0,0,0,0,0,0,0],"sum_hessian":[5.55724E0,4.2178807E0,1.3393594E0,3.1361265E0,1.0817543E0,1.630822E0,1.5053045E0],"tree_param":{"num_deleted":"0","num_feature":"90","num_nodes":"7","size_leaf_vector":"1"}},{"base_weights":[1.20290446E-4,-3.0903952E-2,4.132995E-2,1.1270153E-1,-2.3174383E-2,5.7707853E-3,5.3904973E-2],"categories":[],"categories_nodes":[],"categories_segments":[],"categories_sizes":[],"default_left":[0,0,0,0,0,0,0],"id":85,"left_children":[1,-1,3,5,-1,-1,-1],"loss_changes":[3.2067694E-2,0E0,5.4313194E-2,2.0150576E-2,0E0,0E0,0E0],"parents":[2147483647,0,0,2,2,3,3],"right_children":[2,-1,4,6,-1,-1,-1],"split_conditions":[1.9E1,-3.0903952E-2,9.748E-1,2.00001E0,-2.3174383E-2,5.7707853E-3,5.3904973E-2],"split_indices":[2,0,18,81,0,0,0],"split_type":[0,0,0,0,0,0,0],"sum_hessian":[5.5434213E0,1.1544645E0,4.388957E0,2.7707875E0,1.6181693E0,1.694075E0,1.0767125E0],"tree_param":{"num_deleted":"0","num_feature":"90","num_nodes":"7","size_leaf_vector":"1"}},{"base_weights":[9.802958E-4,4.2914633E-2,